tree
version=v3
num_class=1
num_tree_per_iteration=1
label_index=0
max_feature_idx=8
objective=lambdarank
feature_names=Column_0 Column_1 Column_2 Column_3 Column_4 Column_5 Column_6 Column_7 Column_8
feature_infos=[0:1] [0:1] [0:1] [0:1] [0:1] [0:1] [0:1] [0:1] [0:1]
tree_sizes=3516 3485 3477 3505 3490 3489 3482 3472 3482 3476 3487 3487 3485 3495 3490 3494 3493 3481 3498 3493 3492 3497 3476 3488 3487 3489 3491 3481 3478 3492 3498 3477 3488 3499 3492 3494 3496 3479 3493 3490 3507 3494 3498 3498 3495 3492 3498 3487 3494 3496 3500 3513 3495 3503 3497 3493 3494 3509 3496 3485 3498 3496 3492 3504 3500 3502 3497 3504 3505 3504 3487 3502 3509 3504 3501 3490 3495 3502 3505 3517 3503 3498 3499 3511 3513 3512 3522 3510 3505 3519 3514 3502 3510 3504 3508 3512 3506 3507 3503 3508 3506 3511 3511 3503 3510 3519 3520 3506 3515 3512 3517 3517 3516 3523 3510 3520 3512 3511 3522 3520 3523 3532 3522 3516 3523 3515 3522 3516 3519 3517 3514 3508 3503 3533 3517 3513 3513 3522 3525 3518 3521 3519 3517 3514 3510 3517 3519 3501 3516 3516 3533 3514 3511 3514 3512 3510 3505 3507 3497 3500 3505 3506 3505 3503 3518 3517 3515 3519 3515 3518 3516 3523 3528 3516 3513 3517 3526 3520 3505 3510 3517 3517 3507 3509 3508 3505 3522 3515 3508 3512 3512 3522 3522 3525 3513 3532 3517 3512 3514 3511 3523 3522 3525 3523 3520 3525 3528 3520 3524 3502 3513 3515 3517 3523 3517 3523 3525 3524 3521 3528 3523 3527 3526 3522 3520 3511 3524 3522 3529 3529 3536 3532 3530 3535 3535 3535 3523 3533 3531 3528 3535 3524 3525 3530 3532 3535 3523 3526 3520 3525 3536 3544 3527 3533 3538 3514 3524 3510 3531 3519 3528 3532 3533 3544 3536 3533 3537 3535 3542 3526 3530 3541 3536 3547 3523 3542 3516 3538 3527 3520 3528 3519 3530 3511 3533 3540 3525 3529 3525 3528 3532 3533 3538 3538 3532 3547 3534 3530 3545 3524 3533 3532 3536 3530 3528 3530 3541 3555 3540 3539 3545 3552 3550 3548 3539 3528 3533 3532 3532 3552 3551 3538 3532 3551 3547 3549 3539 3551 3553 3556 3556 3546 3514 3547 3549 3537 3547 3546 3572 3551 3561 3543 3572 3525 3533 3540 3533 3548 3545 3542 3547 3558 3538 3529 3555 3537 3536 3530 3543 3527 3551 3536 3517 3523 3550 3522 3560 3542 3550 3554 3549 3544 3524 3518 3519 3551 3537 3553 3518 3544 3524 3556 3543 3534 3527 3546 3521 3563 3558 3543 3542 3538 3548 3545 3545 3545 3545 3552 3552 3552 3558 3551 3545 3561 3538 3537 3541 3554 3544 3537 3558 3558 3539 3555 3555 3549 3543 3542 3559 3559 3562 3551 3536 3547 3554 3532 3553 3547 3553 3549 3556 3544 3551 3564 3562 3565 3557 3542 3566 3548 3538 3567 3553 3550 3546 3547 3545 3546 3559 3564 3554 3538 3544 3564 3558 3548 3551 3552 3553 3543 3566 3546 3563 3552 3559 3562 3558 3569 3557 3561 3557 3552 3557 3534 3554 3547 3552 3552 3555 3539 3534 3547 3543 3549 3558 3554 3570 3552 3557 3547 3555 3559 3541 3549 3550 3560 3554 3557 3554 3560 3572 3550 3561 3555 3560 3562 3563 3563 3560 3555 3552 3554 3547 3560 3568 3558 3563 3558 3554 3558 3537 3553 3561 3547 3546 3549 3552 3555 3569 3543 3558 3566 3544 3543 3556 3540 3532 3536 3568 3550 3544 3542 3566 3533 3564 3554 3576 3564 3542 3548 3547 3577 3541 3562 3555 3543 3554 3560 3556 3567 3540 3561 3562 3546 3545 3565 3557 3548 3565 3545 3548 3558 3545 3554 3558 3557 3557 3555 3557 3564 3573 3561 3550 3539 3549 3549 3547 3549 3558 3538 3554 3559 3548 3560 3549 3553 3541 3551 3551 3541

Tree=0
num_leaves=31
num_cat=0
split_feature=0 2 7 5 2 6 1 0 8 0 2 2 7 1 4 5 2 1 6 0 5 4 8 2 2 8 3 3 7 2
split_gain=96.0027 42.0767 11.9316 8.12269 3.27352 2.26756 2.13182 1.96311 1.93128 1.81775 1.50137 1.602 1.34494 1.26551 1.45121 1.02444 0.993519 0.982534 0.959707 0.947157 0.714204 0.71264 0.686419 1.28745 1.52673 0.691662 0.749073 1.25128 0.674961 0.580758
threshold=0.069047619047619066 0.0045812144802863585 0.0038166060295865899 0.69615384615384623 0.060967279034773773 0.33786047018537385 0.02684354288682771 0.162280701754386 0.00018703079420308416 0.65476190476190488 0.057325545658836706 0.013391869031809273 1.4746720029118074e-05 0.027206478446300805 0.0032766885972166974 0.83666666666666678 0.050566816597542703 0.056160176633908071 0.067015288984362806 0.87083333333333346 0.72363636363636374 0.025507098991377767 3.2672992408350119e-10 0.0067029926072909732 0.006986221881575428 0.00031789673434945198 0.038172302032450874 0.059329761193527127 0.0005657789586162638 0.094487895078153986
decision_type=2 2 2 2 2 2 2 2 2 2 2 2 2 2 2 2 2 2 2 2 2 2 2 2 2 2 2 2 2 2
left_child=22 19 3 8 6 7 15 16 12 -8 11 -7 13 14 -3 21 20 -6 -10 -2 -5 -4 -1 -24 -25 26 -26 -28 -12 -9
right_child=1 2 4 5 17 10 9 29 18 -11 28 -13 -14 -15 -16 -17 -18 -19 -20 -21 -22 -23 23 24 25 -27 27 -29 -30 -31
leaf_value=-0.0094665286961750431 -0.007777585678026098 -0.0051627670853264919 0.0041387169087824527 0.0043924671299668244 -0.0077618133128900223 -0.0025539860421105913 -0.0080701164363309839 0.0069181978858422147 0.0074105795052418627 0.002179719439172171 0.0021982890516186477 0.0063476522366469673 -0.002739274280318193 0.0045209473918959757 0.0067281308199137954 -0.007958943099439713 0.0054731871236228706 0.004109903624443109 -0.00065288102026778009 0.0045219827459119502 -0.0073690299223956833 -0.0065426458735388859 -0.0095296690032105041 0.0048061401805682049 -0.0075464982108891408 -0.0086890022113178308 0.0042247386967761051 -0.0086340150803929875 -0.0053054155362679337 0.0083552750993854969
leaf_weight=14.787157785554884 7.8269989084510589 0.93159171156002984 1.1474470397515677 0.19027398692560626 0.18793911786633577 0.54771802807226588 2.4695002371590822 16.04932915818063 1.4830557540117295 0.52440918690990646 2.1449586171074775 6.5466167692211457 2.9172166402277071 1.9217625318269709 0.35412860149517655 0.27241819087066677 0.61967431881930679 2.3989618447958492 0.4912349908845498 0.15971847652690474 0.40129264636198059 0.18075393018079911 4.1749285110563497 0.32929448847426135 0.79735211387742333 1.7137646812916498 0.49400079315819312 0.30661593584227376 0.34835793450474728 12.510459260782225
leaf_count=6530 3636 302 173 32 82 177 1104 1477 89 132 440 604 880 211 23 170 83 340 124 33 196 83 1886 42 331 745 81 139 136 645
internal_value=0 0.00318805 0.00475497 0.00566388 -0.00125144 0.00660222 -0.00378448 0.00728329 0.00110381 -0.00627477 0.00448742 0.0056604 -0.000282436 0.00195207 -0.00188763 0.00087353 0.0010487 0.00324742 0.00540426 -0.00753162 -0.00358601 0.0026851 -0.00883305 -0.00763457 -0.00546159 -0.00648253 -0.00411617 -0.000699838 0.0011499 0.0075477
internal_weight=0 62.6258 54.6391 47.4577 7.18143 39.3587 4.59453 29.771 8.09899 2.99391 9.58765 7.09433 6.1247 3.20748 1.28572 1.60062 1.21124 2.5869 1.97429 7.98672 0.591567 1.3282 22.6031 7.81596 3.64103 3.31173 1.59797 0.800617 2.49332 28.5598
internal_count=20926 11172 7503 5419 2084 3790 1662 2433 1629 1236 1357 781 1416 536 325 426 311 422 213 3669 228 256 9754 3224 1338 1296 551 220 576 2122
shrinkage=0.005


Tree=1
num_leaves=31
num_cat=0
split_feature=0 0 6 7 1 2 4 4 3 8 5 1 7 6 0 1 6 1 5 6 3 4 2 1 4 6 3 2 6 6
split_gain=106.167 29.6821 12.4252 12.5171 7.57051 5.7009 5.4634 4.52152 4.25023 4.18447 4.04849 2.88818 2.59983 3.71333 3.88617 2.48152 2.1981 2.05205 1.94928 1.62317 1.53628 1.52268 1.45768 1.34204 1.23721 1.22483 1.15839 1.12618 1.10916 1.28889
threshold=0.080128205128205135 0.75961538461538469 0.34009459670481201 0.0038166060295865899 0.23837321080104204 0.09209213929640378 0.00028697432774754558 0.0003707684419079949 0.043901014684432728 0.00012516805703875151 0.69615384615384623 0.036325236806663087 1.717498995620305e-05 0.1262549729447929 0.57518796992481214 0.10822224441796159 0.24707079254422065 0.025260388545849003 0.45227272727272733 0.26656263039422506 0.014207653106717876 0.0060142455414002585 0.14182854182854185 0.045576042767054008 1.0651750187085194e-05 0.032268876441083311 0.044490214433878537 0.49881828938442618 0.29720357226907407 0.037701953514621543
decision_type=2 2 2 2 2 2 2 2 2 2 2 2 2 2 2 2 2 2 2 2 2 2 2 2 2 2 2 2 2 2
left_child=24 2 3 4 6 -3 15 -6 9 10 -8 18 -12 25 -15 23 22 -5 -4 -16 -9 -10 -17 -2 -1 -14 -20 -22 29 -23
right_child=1 5 11 17 7 -7 8 20 21 -11 12 -13 13 14 19 16 -18 -19 26 -21 27 28 -24 -25 -26 -27 -28 -29 -30 -31
leaf_value=-0.0056807535854414186 -0.001896131286727921 0.0022747422724574916 -0.0049943099921825199 -0.00092918346064060149 0.0075292596624488509 0.0072322159893337982 -0.0066692941666708873 -0.0032803644087711628 -0.0055308658949902827 0.0061453769689473869 0.0080345861362732633 -0.0065099864569096028 0.00070852048881678471 0.0048058594254630892 0.0012312606335374246 -0.0064132034927984298 0.0057252828649412063 -0.0070148311683528976 -0.0013194483462524702 -0.0063577132730808453 0.000343473236887362 0.0052971292139280006 0.0032248407767403887 -0.0064129106865315894 -0.0088915704805957625 -0.0070016229563586319 0.0042139400796434925 0.0084021294810503033 0.0072577274456163687 -0.0034797312045391649
leaf_weight=3.4016924243769635 5.3312484933412616 7.4116244584438382 3.1326188067905587 2.0266250481945454 9.1440520203905162 26.654805066646077 1.3111115918727652 1.4105128451483318 1.8536630912567478 8.1935635528643598 1.8542535937740456 5.6249054545187382 0.81259074958506916 7.6318412721739133 1.6491075913654643 0.93357908574398629 1.7559347890783099 4.3766932988073677 3.9846676483284682 1.2302125109126789 1.0400039996020494 0.56950233550742346 0.67664282093755901 2.378154335077852 25.420394334767479 1.4069681928958742 1.2402144604711791 0.74344455893151451 0.4801484178751706 1.5754013623227363
leaf_count=1093 1234 839 947 557 164 334 419 41 286 292 46 1406 88 284 85 125 68 1354 1050 79 63 23 40 237 9098 219 239 12 38 166
internal_value=0 0.0023052 0.000493571 0.00150746 0.00232 0.00615365 0.00125551 0.00574036 0.00241124 0.0032428 0.00174668 -0.00374004 0.00250323 0.00169758 0.00293847 -0.00172556 0.00185614 -0.00508875 -0.00187576 -0.00201119 0.000618898 -0.00206149 -0.00236313 -0.00328944 -0.00851262 -0.0041789 -6.00467e-06 0.00370279 0.000388389 -0.00114935
internal_weight=0 106.434 72.3677 58.3853 51.9819 34.0664 39.6439 12.338 28.5684 24.0896 15.8961 13.9824 14.585 12.7307 10.5112 11.0756 3.36616 6.40332 8.3575 2.87932 3.19396 4.47872 1.61022 7.7094 28.8221 2.21956 5.22488 1.78345 2.62505 2.1449
internal_count=20926 10735 9562 5920 4009 1173 3729 280 2025 1512 1220 3642 801 755 448 1704 233 1911 2236 164 116 513 165 1471 10191 307 1289 75 227 189
shrinkage=0.005


Tree=2
num_leaves=31
num_cat=0
split_feature=0 2 5 6 7 4 3 0 2 1 2 2 3 1 4 7 3 8 0 6 0 7 5 3 5 7 0 1 6 0
split_gain=96.695 21.7773 8.37553 5.85062 7.07239 5.51326 3.50891 6.08033 5.2786 2.78323 2.49296 2.3393 2.23351 2.18701 2.13492 2.1247 2.07676 2.03465 1.78883 1.38665 3.04871 1.36878 2.17003 1.63076 2.55922 1.34672 1.21858 1.17765 1.17599 1.15241
threshold=0.080128205128205135 0.094487895078153986 0.72363636363636374 0.34009459670481201 0.0038166060295865899 0.0006681791080582688 0.016059034749264085 0.84412955465587058 0.24616807141078986 0.10993118177503561 0.0047577102250833244 0.013184606965824235 0.045069970466481514 0.68196981681373037 0.019253931706600332 0.00015080606040508989 0.038172302032450874 0.0004117471597982738 0.34523809523809529 0.33453246805684878 0.75961538461538469 8.1781205990432308e-05 0.98000000000000009 0.0021329895966357899 0.88444444444444448 0.00037728630084995921 0.39230769230769241 0.004338909775896454 0.69728791890767461 0.8973684210526317
decision_type=2 2 2 2 2 2 2 2 2 2 2 2 2 2 2 2 2 2 2 2 2 2 2 2 2 2 2 2 2 2
left_child=-1 3 13 4 5 18 19 8 -8 10 -7 17 26 -3 15 -13 -17 -12 25 21 -21 22 23 -4 -25 -2 -5 -27 -28 -24
right_child=1 2 6 12 -6 9 7 -9 -10 -11 11 14 -14 -15 -16 16 -18 -19 -20 20 -22 -23 29 24 -26 27 28 -29 -30 -31
leaf_value=-0.0086810829578508556 -0.0058073982990515432 -0.0083957184668955985 0.0058219443134460702 -0.006666522093240819 -0.0042722545003933193 -0.0019196875824411784 -0.0061006613482097695 0.0090082184868515609 0.0048495770696494692 -0.0030993100011579948 0.0080159809104933116 0.0065762358212883756 0.00087000848347673881 0.0073717103572211017 -0.006388158616641694 -0.00083237967697151949 0.0054545484032580216 0.0026403587018954378 0.00049866561627721613 -0.0077498106809955284 0.0049275097662062981 0.0071898578087615603 0.0072405208096744823 -0.0035128560925223478 0.0040098429557903856 0.0088712565754660976 -0.0021472473683568482 -0.0020160043233478911 -0.0080019502170301481 0.0045499217446899401
leaf_weight=25.669207111932337 2.4145434972015205 1.5016486968379457 3.1160958497785058 2.8231370287830932 5.5384967992431475 1.6664981853682608 2.6527173797367132 1.9461207611020652 1.8808966804062945 1.5179233655799169 5.8589251018129307 3.2949874100740963 3.2747304632794103 0.257657064590603 0.59564515459351319 3.513684660254512 2.0977949271909893 2.5162094214465469 9.9627124036196602 0.60475785611197297 2.1974713481031358 12.455921344691886 10.098504401394168 1.8122276230715213 3.0057437932118773 0.31051360024139274 7.126376143191008 1.2413377996999768 0.97504941886290897 6.5681114082690319
leaf_count=10191 625 382 59 922 1771 452 312 12 76 216 213 97 565 6 33 374 138 87 1477 170 62 192 98 63 44 5 1746 171 283 84
internal_value=0 0.00216711 0.00462162 9.98801e-06 0.000977626 0.0018086 0.00502816 0.0016157 -0.00155765 0.00342263 0.00392918 0.00447441 -0.00275196 -0.00608652 0.00277637 0.00338927 0.00151792 0.00640094 -0.000631918 0.00558292 0.00219158 0.00583937 0.00515559 0.00300328 0.00118026 -0.00347169 -0.00383767 0.000162453 -0.00285189 0.00618019
internal_weight=0 102.826 48.0979 54.7286 40.5293 34.9908 46.3386 6.47973 4.53361 21.0617 19.5437 17.8772 14.1993 1.75931 9.50211 8.90647 5.61148 8.37513 13.9291 39.8588 2.80223 37.0566 24.6007 7.93407 4.81797 3.96639 10.9246 1.55185 8.10143 16.6666
internal_count=20926 10735 1560 9175 5659 3888 1172 400 388 1610 1394 942 3516 388 642 609 512 300 2278 772 232 540 348 166 107 801 2951 176 2029 182
shrinkage=0.005


Tree=3
num_leaves=31
num_cat=0
split_feature=0 6 7 5 4 1 4 7 2 0 8 4 1 7 2 2 4 0 6 5 1 7 0 2 0 1 0 6 1 2
split_gain=94.6472 22.0646 16.9664 9.91736 6.27659 3.56721 5.54937 4.31006 6.20123 3.58434 2.72839 2.42116 2.07212 2.04546 1.8488 1.80491 1.60917 1.76215 1.82938 1.59615 1.33396 1.319 1.27317 1.15591 1.05787 1.31766 1.00211 0.902258 0.882109 0.875396
threshold=0.080128205128205135 0.34009459670481201 0.0038166060295865899 0.55777777777777793 2.6830955653782939e-08 0.23837321080104204 1.71753301715958e-06 1.0000000180025095e-35 0.019965930182648452 0.75961538461538469 0.0026031810265396121 0.0012578259864146023 0.05443075750384721 0.0037218489516662174 0.0047577102250833244 0.11774353320470739 0.0045283343796437047 0.78174603174603186 0.48255048223147839 0.88444444444444448 0.0037644748562636657 6.6416942401391417e-05 0.97916666666666685 0.099683106275016864 0.75961538461538469 0.025260388545849003 0.58114035087719318 0.55257592099338571 0.0037644748562636657 0.0010154963715335234
decision_type=2 2 2 2 2 2 2 2 2 2 2 2 2 2 2 2 2 2 2 2 2 2 2 2 2 2 2 2 2 2
left_child=-1 2 3 20 -3 6 22 11 14 10 13 15 16 19 -9 -8 17 27 -19 -10 -2 -11 -5 -21 25 -4 -25 28 -6 -18
right_child=1 4 24 5 12 -7 7 8 9 21 -12 -13 -14 -15 -16 -17 29 18 -20 23 -22 -23 -24 26 -26 -27 -28 -29 -30 -31
leaf_value=-0.0087101505246586428 -0.00069596219077594577 0.0071229727354797743 -0.0017683365432626889 -0.0039199976772059568 -0.0010077410518157513 0.0061642243006679318 0.0015293466667576252 -0.0028899947978242228 -0.0053459150286624549 0.0018209033512355578 0.004803411364339154 0.007725368278373829 -0.0059933725092714083 0.0086335330486395946 0.0058248394461026297 0.0061850609862257547 -0.0049955643309661929 -0.0051254242751129888 0.0067570100269630498 -0.003982373877378779 -0.0058449494607758423 0.0068969416795230725 0.0060433431052093686 0.0053446998656548781 0.0031414790777196467 -0.0067806813170666761 -0.0023491555350920214 -0.0063657060891995432 -0.0054557145396112415 0.0027025090295012761
leaf_weight=24.976747218985111 3.6243579712463534 1.4891924419207523 1.9628052356420074 2.7425448757130648 2.6926613396499324 21.340706150513142 3.8201760484371352 0.64021197869442659 3.8771872122306359 3.2001863007899365 1.5033437791280446 9.797777066472916 5.8554919805610544 0.38493097655009467 12.314379863790235 4.5744708913844079 0.45382050808984731 0.54311241884715833 0.80257918348070234 1.3657622806495058 1.9265054900897665 2.1326488917693496 0.36308809416368593 1.0223170509561894 0.4150230933446436 3.9495090269483626 0.72219810169190157 3.0245303207775578 1.9019953510724006 1.9829364842735229
leaf_count=10191 872 53 557 296 695 385 408 217 658 83 76 193 1300 6 513 58 129 117 43 317 470 67 15 59 40 1354 49 879 524 302
internal_value=0 0.00216627 0.00328905 0.00394939 -0.00272582 0.00446091 0.00371083 0.00415358 0.00289218 0.000611026 -0.00133557 0.00603697 -0.00357571 -0.0025874 0.00539415 0.00406637 -0.00233408 -0.00331339 0.00196134 -0.00320555 -0.00248299 0.00385086 -0.00275516 -0.000537429 -0.00457499 -0.00511665 0.00215958 -0.00424501 -0.00284902 0.00126882
internal_weight=0 100.426 81.6801 75.3528 18.7463 69.8019 48.4612 45.3556 27.1632 14.2086 8.87574 18.1924 17.2571 7.3724 12.9546 8.39465 11.4016 8.96488 1.34569 6.98746 5.55086 5.33284 3.10563 3.11028 6.32734 5.91231 1.74452 7.61919 4.59466 2.43676
internal_count=20926 10735 6693 4742 4042 3400 3015 2704 2045 1315 1165 659 3989 1089 730 466 2689 2258 160 1083 1342 150 311 425 1951 1911 108 2098 1219 431
shrinkage=0.005


Tree=4
num_leaves=31
num_cat=0
split_feature=0 6 7 5 4 2 1 4 3 4 2 1 2 2 3 7 4 3 1 0 3 4 3 1 6 2 3 6 3 3
split_gain=96.7481 22.5917 20.2437 11.7165 9.22601 3.07885 2.33529 2.00869 2.71412 1.88565 2.30607 1.67062 1.48831 5.51896 3.45441 2.11642 3.55858 2.27683 1.66959 1.6151 3.20809 1.49428 1.23739 1.0435 1.03751 1.00091 0.954309 0.880356 0.817645 1.14098
threshold=0.080128205128205135 0.34009459670481201 0.0038166060295865899 0.55777777777777793 2.6830955653782939e-08 0.0045812144802863585 0.03572731061790143 0.0051510597427558008 0.043338589102118678 0.0045283343796437047 0.097110568301280079 0.0037644748562636657 0.013184606965824235 0.094487895078153986 0.036090774599385041 0.00015080606040508989 0.00068996166805714921 0.0079426834804626114 0.2477701028416199 0.29583333333333339 0.0035383629454014743 0.0006681791080582688 0.025528357321645778 0.025595213406884879 0.079570141182726054 0.0010154963715335234 0.031472706064655014 0.59474141858544893 0.014489025404128704 0.001798425738446421
decision_type=2 2 2 2 2 2 2 2 2 2 2 2 2 2 2 2 2 2 2 2 2 2 2 2 2 2 2 2 2 2
left_child=-1 2 3 11 -3 -5 9 8 12 10 27 -2 21 14 15 16 18 -17 -14 20 -15 24 -9 26 -7 -11 -23 -6 29 -21
right_child=1 4 -4 5 6 7 -8 22 -10 25 -12 -13 13 19 -16 17 -18 -19 -20 28 -22 23 -24 -25 -26 -27 -28 -29 -30 -31
leaf_value=-0.008884383120611147 -0.001327429524148101 0.0071656005887651046 -0.0055807429838704977 -0.0016653409512994554 -0.0036653563269289707 0.00705975294218674 -0.006883514358602366 0.0086097946146608765 -0.0050853574325177685 -0.0059298064483422289 0.0050605759528745452 -0.0074424982556113555 -0.0043860396656619192 0.0055208017667488828 0.0071075423853319275 0.0021274395179342073 0.0052364376531525659 -0.0060605295839483873 0.0043560052312629043 0.0043019272533222994 -0.008377701392863441 0.0027629376994374589 0.0052484645469802697 0.0082269018019532798 0.0002039502371947216 0.002488381564641404 0.0073803737066326074 -0.0074652903188129347 0.0028055679562209511 0.0064275771597336207
leaf_weight=24.566084384918213 3.6237456982489666 2.0030503823654753 5.9431499055353916 1.9447927306173358 4.9039209119509888 0.82778415782377068 5.4229510108707464 4.6795778161613253 0.75458490173332293 0.42826116469223086 0.64024440059438337 1.6145337879424912 2.2664137480314808 1.1528404555283511 2.0147010142682111 1.3328175654169174 3.3328369774390012 2.3389683313434944 0.71956621878780413 9.9348113702144527 0.64889068086631585 2.3035987822804582 6.5987951228162274 5.7318726677913219 1.6554546838160602 2.011899447068572 2.1760040076915175 2.2116224822821096 2.7789258891716591 17.316565932705998
leaf_count=10191 872 53 1951 540 1262 46 1652 30 133 127 46 470 518 21 55 150 76 573 28 182 132 58 158 92 175 214 21 688 97 315
internal_value=0 0.00219764 0.00330523 0.00400242 -0.00293691 0.00453841 -0.00423251 0.00471437 0.00433464 -0.00282251 -0.00402861 -0.00321221 0.00446038 0.00402381 0.00113498 -6.94504e-05 0.00168482 -0.00308839 -0.00227937 0.00511332 0.000515277 0.00596796 0.00664313 0.0068139 0.00248932 0.00101094 0.0050059 -0.00484644 0.00538919 0.00565265
internal_weight=0 99.3132 81.6912 75.7481 17.6219 70.5098 15.6189 68.565 57.2866 10.1959 7.75579 5.23828 56.5321 43.8373 12.0053 9.9906 6.31882 3.67179 2.98598 31.832 1.80173 12.6947 11.2784 10.2115 2.48324 2.44016 4.4796 7.11554 30.0303 27.2514
internal_count=20926 10735 6693 4742 4042 3400 3989 2860 2672 2337 1996 1342 2539 2147 1400 1345 622 723 546 747 153 392 188 171 221 341 79 1950 594 497
shrinkage=0.005


Tree=5
num_leaves=31
num_cat=0
split_feature=0 6 7 5 4 2 1 2 2 7 2 0 6 3 2 4 3 4 8 4 2 2 1 5 3 2 7 1 1 7
split_gain=96.2584 22.5803 20.932 13.1961 8.72413 4.25987 2.52187 2.26361 7.36323 3.55669 3.95647 2.13909 2.06321 1.90206 1.95558 1.75486 2.0144 1.58204 1.43977 2.32528 1.79387 1.3896 1.22959 1.17232 1.1594 1.15505 1.90617 1.69401 1.29712 1.11187
threshold=0.080128205128205135 0.34009459670481201 0.0038166060295865899 0.55777777777777793 2.6830955653782939e-08 0.0045812144802863585 0.03572731061790143 0.013184606965824235 0.094487895078153986 1.0000000180025095e-35 0.039039966771973536 0.22649572649572652 0.27980711336270975 0.047748463652868008 0.097110568301280079 0.0057300743198573619 0.014489025404128704 0.0014186834515045185 0.00063556844965140344 0.0006681791080582688 0.005546695048418101 0.0010154963715335234 0.0037644748562636657 0.88444444444444448 0.0035383629454014743 0.14182854182854185 0.00039073555712105401 0.68196981681373037 0.23837321080104204 5.6158662655082424e-05
decision_type=2 2 2 2 2 2 2 2 2 2 2 2 2 2 2 2 2 2 2 2 2 2 2 2 2 2 2 2 2 2
left_child=-1 2 3 22 -3 -5 13 18 9 17 11 -11 -13 14 -6 16 25 -9 19 -7 -20 -15 -2 -18 -12 29 28 -28 -27 -10
right_child=1 4 -4 5 6 7 -8 8 15 10 24 12 -14 21 -16 -17 23 -19 20 -21 -22 -23 -24 -25 -26 26 27 -29 -30 -31
leaf_value=-0.0088912723168214202 -0.0021588977994878539 0.0068237795478689849 -0.0058551938383315247 -0.0030275652125232094 -0.0049287997691612176 0.0013981315101675937 -0.0072697564584947453 0.00067330742623983851 0.0046335408945217711 0.0045482336044425364 0.00020583078787922004 -0.0047926556491919899 0.0040103280726690952 -0.0065879597120571476 0.0039681495811619057 0.0089321068441749283 -0.0091235371362353417 0.0064829226496755463 0.0071459677050658707 0.0073603549685372091 -0.0019190468586588575 0.0028936721115137803 -0.0075145890229419646 0.0017105976839015063 -0.0069686419827632773 0.0027859370891025591 -0.003476609401730898 0.0050133569283768147 0.0061257424627250466 0.0075826619654841563
leaf_weight=24.380919267539866 3.5225579525576896 1.9769407549174527 5.7921611422207198 1.7980681470362458 6.9039412515703571 1.8329522999702081 4.9537034471286452 1.791705023148096 5.1748794628074455 3.0976259303279203 0.73697105504106764 1.7606346921529623 1.0702152451267464 0.4843018451938409 0.67831917211879034 3.2490846161963409 0.30603144294582207 3.3870716982055455 1.0441504763439291 15.165453064488245 1.143349590944126 1.9120180096942929 1.5403094659559426 1.3561651728814466 2.3869625654770061 4.0596630348591161 1.3069792313035569 1.0673917233943939 10.241181545425205 8.3577808667905611
leaf_count=10191 872 53 1951 540 1978 209 1652 227 120 241 101 300 92 140 48 18 89 55 21 200 53 171 470 91 577 147 68 4 144 103
internal_value=0 0.00220979 0.00330454 0.00400821 -0.00304664 0.00456943 -0.00435342 0.00476874 0.00420216 0.0011682 -0.000722423 0.00167708 -0.00146465 -0.00290565 -0.00413287 0.0054316 0.00507474 0.00447297 0.00622609 0.00671744 0.00240792 0.000977412 -0.00378829 -0.000284104 -0.0052761 0.00536961 0.00448883 0.000340031 0.00517765 0.00645492
internal_weight=0 98.0986 81.1893 75.3972 16.9092 70.3343 14.9323 68.5362 49.3503 14.2312 9.05241 5.92848 2.83085 9.97858 7.58226 35.1192 31.8701 5.17878 19.1859 16.9984 2.1875 2.39632 5.06287 1.6622 3.12393 30.2079 16.6752 2.37437 14.3008 13.5327
internal_count=20926 10735 6693 4742 4042 3400 3989 2860 2377 1593 1311 633 392 2337 2026 784 766 282 483 409 74 311 1342 180 678 586 363 72 291 223
shrinkage=0.005


Tree=6
num_leaves=31
num_cat=0
split_feature=0 5 7 6 4 2 3 1 4 8 6 2 2 8 6 4 1 1 1 3 0 6 4 7 7 2 2 4 5 2
split_gain=94.3869 22.6466 20.0935 13.9648 9.42779 4.53609 2.81413 1.76295 1.69211 2.18541 1.7409 1.71034 5.87557 3.96023 2.70505 1.73081 2.0749 1.60052 2.27336 1.54412 1.4501 1.7074 1.42306 2.43836 1.54276 1.43288 1.36135 1.29135 1.23336 1.1261
threshold=0.080128205128205135 0.55777777777777793 0.0038166060295865899 0.34009459670481201 2.6830955653782939e-08 0.0045812144802863585 0.047748463652868008 0.025260388545849003 0.0051510597427558008 1.3253351185930964e-06 0.32924740546284098 0.013184606965824235 0.094487895078153986 0.0010484641504985806 0.18413630508712767 0.0012955546386202532 0.2477701028416199 0.025595213406884879 0.014745622806281299 0.11840728878423394 0.40833333333333338 0.56299840093037479 0.000889551678259976 5.6158662655082424e-05 5.2732932118824166e-05 0.11276980238924043 0.018049534488444069 0.017763659999552792 0.98000000000000009 0.14182854182854185
decision_type=2 2 2 2 2 2 2 2 2 2 2 2 2 2 2 2 2 2 2 2 2 2 2 2 2 2 2 2 2 2
left_child=-1 20 3 5 -5 -3 -6 19 11 -10 -11 17 13 14 -13 16 26 18 -7 -4 27 -22 23 28 -24 -26 -16 -2 -14 -25
right_child=1 2 7 4 6 8 -8 -9 9 10 -12 12 22 -15 15 -17 -18 -19 -20 -21 21 -23 24 29 25 -27 -28 -29 -30 -31
leaf_value=-0.0088544693059699753 -0.0069321650298199249 -0.0034536629491420828 -0.0047503983898027112 0.0076574635051564234 -0.0057956989184541133 0.0057562896137500113 0.0022035814691802901 -0.0065605395066697112 0.0074752026520577761 -0.0021150291642518678 0.0075107294024645156 -0.0050268955606069575 0.0011985744861848448 0.0066307923701968063 0.0034811850521704801 0.0041164348156651634 0.0062918399037738574 0.0070701901349134412 -0.0011053917715025767 0.0035615768793831638 -0.00052823089932830982 -0.0077962702992097413 0.0071130726693977211 0.007830672463652209 0.004179788215139783 -0.0033295886995935386 -0.0061120401525278445 0.00016427003638437931 0.0047528637506103841 0.0049248818139526699
leaf_weight=24.09634726063814 5.7431784119689819 1.7128899913514022 1.3320859164232381 2.0607154425233585 6.287348848534748 4.1516774022020391 1.3324747616425154 4.9824836133047938 9.7895738884108123 1.1864187788451079 0.77758785523474205 2.7628620706964266 3.4511374727590054 2.1426469130674368 0.47523978236131448 2.4831429007463157 0.63744114618748415 9.7270496205892396 1.7019640635699032 0.96243966335896391 3.1696019974770024 1.0845510859508065 1.0702444729395204 9.1998518161708471 1.1336740677943455 1.4448554164264349 1.667019431130029 0.7216139503289013 8.3367520063184202 5.2294234180590129
leaf_count=10191 1815 540 426 22 1923 120 107 1706 113 68 7 713 177 90 45 176 29 205 91 128 765 311 17 94 41 141 437 132 164 132
internal_value=0 0.00220509 0.00305889 0.00379335 -0.00183084 0.00458149 -0.00439687 -0.00489046 0.00478578 0.0065095 0.00169599 0.0044215 0.00387449 0.000591709 -0.00102056 0.00108266 -0.00162745 0.00582702 0.00376123 -0.00126394 -0.00464821 -0.00238114 0.00499216 0.00539933 0.00206658 -2.80225e-05 -0.00398387 -0.00614005 0.00371228 0.00677756
internal_weight=0 96.7579 86.039 78.762 9.68054 69.0815 7.61982 7.27701 67.3686 11.7536 1.96401 55.615 40.0343 10.1684 8.02571 5.26284 2.7797 15.5807 5.85364 2.29453 10.7189 4.25415 29.8659 26.2172 3.64877 2.57853 2.14226 6.46479 11.7879 14.4293
internal_count=20926 10735 7712 5452 2052 3400 2030 2260 2860 188 75 2672 2256 1490 1400 687 511 416 211 554 3023 1076 766 567 199 182 482 1947 341 226
shrinkage=0.005


Tree=7
num_leaves=31
num_cat=0
split_feature=0 5 7 6 4 3 2 5 3 1 2 3 3 5 4 1 2 0 6 1 5 8 5 3 3 1 3 2 7 3
split_gain=92.8193 22.2321 20.353 12.0422 9.5322 5.04978 4.36114 2.06723 2.41225 5.4742 2.00788 1.88991 1.86894 1.69156 2.61285 1.84755 3.42685 1.6477 1.69411 1.6155 1.34572 1.34083 1.32447 1.26078 1.15207 1.13457 1.05706 0.945248 0.87299 1.67652
threshold=0.080128205128205135 0.55777777777777793 0.0038166060295865899 0.34009459670481201 2.6830955653782939e-08 0.047748463652868008 0.0045812144802863585 0.98000000000000009 0.014207653106717876 0.23837321080104204 0.018049534488444069 0.0035383629454014743 0.0021329895966357899 0.91287878787878796 0.0021035474778383864 0.10993118177503561 0.49881828938442618 0.40833333333333338 0.56299840093037479 0.025260388545849003 0.87083333333333346 0.00021599793787010588 0.91287878787878796 0.11840728878423394 0.0035383629454014743 0.32260398215419012 0.18383473815324175 0.11774353320470739 0.0023529309805739606 0.031055041240171884
decision_type=2 2 2 2 2 2 2 2 2 2 2 2 2 2 2 2 2 2 2 2 2 2 2 2 2 2 2 2 2 2
left_child=-1 17 3 6 -5 -6 -3 8 9 10 24 25 -9 15 -15 28 -17 26 -19 23 -12 -7 -13 -4 -8 -11 -2 -22 -10 -30
right_child=1 2 19 4 5 21 7 12 13 11 20 22 -14 14 -16 16 -18 18 -20 -21 27 -23 -24 -25 -26 -27 -28 -29 29 -31
leaf_value=-0.0088240069360707007 -0.0068067126036393246 -0.0034316108345578611 -0.0048188887857307855 0.0075680298775685165 -0.0062692068120940858 -0.0022752806793129936 -0.0057000106486147072 0.0032351396635432006 0.0062203243047207566 0.0081093874934451242 -0.0064396058878086436 -0.003642283487187968 0.0063989785452697413 -0.0074542920243952093 0.0046141559440392981 -0.005360693477906615 0.0087141732431815812 -0.00047251795546404582 -0.0077964446031687767 -0.0067273001653732579 -0.0046570046089334759 0.0070461039007107922 0.0045398925744780053 0.0028438701047870823 0.0035665617311215671 0.0039596563965261008 0.0022422462152075144 0.0025925231550114319 -0.0068128887909849117 0.0050525547596965833
leaf_weight=23.844961679773405 5.8747956793522444 1.6769193256041024 1.2590578631497913 2.2803978580050153 5.8851491800742224 0.61098527384456236 0.39290977758355383 5.8763280815910575 17.208108484861452 3.7359395015519095 1.8795749924611302 0.92638782691210497 22.695285846595652 0.6689820247702295 1.3607208061730487 1.0312003289582197 0.74482109886594106 3.212530589196831 1.0468790017766876 4.8175504851387814 0.77151537605095644 1.046709769987501 1.0611024969257412 0.93575081205926824 2.2920884098857641 2.9460292982403189 0.34149220492690791 1.0777663332410155 0.37725051294546474 1.4118050558026878
leaf_count=10191 1900 540 426 22 1923 73 78 241 502 33 428 63 653 60 52 215 6 765 311 1706 160 34 28 128 126 51 47 56 50 58
internal_value=0 0.00220447 0.00305177 0.0037857 -0.00138977 -0.00409794 0.00453187 0.00473281 0.003967 0.00241574 -0.00108628 0.00500661 0.00574827 0.00499311 0.000636443 0.00541879 0.00054197 -0.00466816 -0.00227259 -0.00510744 -0.00346019 0.00361047 0.000726104 -0.00155189 0.00221054 0.0062798 -0.00630961 -0.00043196 0.00587472 0.00255054
internal_weight=0 95.446 84.9703 77.958 9.82324 7.54284 68.1347 66.4578 37.8862 15.0833 6.41385 8.66946 28.5716 22.8029 2.0297 20.7732 1.77602 10.4757 4.25941 7.01236 3.72886 1.6577 1.98749 2.19481 2.685 6.68197 6.21629 1.84928 18.9972 1.78906
internal_count=20926 10735 7712 5452 2052 2030 3400 2860 1966 1023 848 175 894 943 112 831 221 3023 1076 2260 644 107 91 554 204 84 1947 216 610 108
shrinkage=0.005


Tree=8
num_leaves=31
num_cat=0
split_feature=0 5 7 6 4 3 2 2 2 4 7 3 1 3 4 0 6 1 1 5 1 4 6 4 0 6 3 2 1 6
split_gain=91.1877 22.1264 20.7211 11.1787 8.67904 6.99781 4.27657 2.03421 5.90323 4.95912 4.42742 2.77565 2.37254 1.82865 1.70443 1.63944 1.60836 1.44214 1.40506 4.52201 1.76678 1.45569 1.20789 1.08957 1.05171 0.939419 0.930798 0.87752 0.830958 0.785698
threshold=0.080128205128205135 0.55777777777777793 0.0038166060295865899 0.34009459670481201 2.6830955653782939e-08 0.047748463652868008 0.0045812144802863585 0.013184606965824235 0.094487895078153986 0.00068996166805714921 0.00015080606040508989 0.038172302032450874 0.2477701028416199 0.043901014684432728 0.0057300743198573619 0.40833333333333338 0.56299840093037479 0.025260388545849003 0.2289734950761865 0.91287878787878796 0.41068047636597516 0.00019332023285683803 0.56939472734737195 0.00068996166805714921 0.69615384615384623 0.18670301628980421 0.18383473815324175 0.10956933810421558 0.004338909775896454 0.21537956467798833
decision_type=2 2 2 2 2 2 2 2 2 2 2 2 2 2 2 2 2 2 2 2 2 2 2 2 2 2 2 2 2 2
left_child=-1 15 3 6 -5 -6 -3 23 9 12 -11 -12 28 -13 18 26 -17 22 19 24 27 -21 -4 25 -10 -8 -2 -20 -9 -29
right_child=1 2 17 4 5 -7 7 8 14 10 11 13 -14 -15 -16 16 -18 -19 20 21 -22 -23 -24 -25 -26 -27 -28 29 -30 -31
leaf_value=-0.0088137587461688312 -0.0068776736396579732 -0.003455180016874857 -0.0034511629922806858 0.0073504150794644202 -0.0065249718596370248 0.0045833345673200118 0.0051488540773224137 0.0034509193984801913 -0.0079175628194347054 0.0057087452304147614 -0.0062289462995640922 0.0056152394863711146 0.0034243514204248334 -0.004466639809788244 0.0086516995174497364 -0.00061476255715324729 -0.0078189801976498371 -0.0068243081373235235 0.0086132477986177909 0.0019278781609086285 0.0032262078642958263 0.0062313282215858213 0.0070718412524171104 0.0064034911974183671 0.0005579522500025238 -0.00084575064182894929 0.001701684371558358 0.004260800467960073 -0.0067822114825486918 0.0073777103248785546
leaf_weight=23.512858411530033 5.7210559793747944 1.6508850131649513 1.854005019180476 2.2824496314860863 5.7124235540395603 1.8858141337987033 1.9268246011342882 0.21532972739078093 0.91478560247924601 6.2891839300282282 1.5700867647537964 1.474659890518524 0.88924056547693897 0.647144115413539 3.359927902230992 3.2180181900039315 1.0203819705639032 4.7253890318097547 4.2277158342767533 2.9477313288953155 4.9338057567365459 5.8945443631382659 0.31972979125566769 18.549111942993477 0.61015123850665987 0.98900385526940215 0.33463668962940563 4.0881476369686407 2.5205111081013456 4.000176418107003
leaf_count=10191 1900 540 538 22 1923 107 105 21 214 133 472 47 47 104 18 765 311 1706 26 110 105 107 16 257 30 121 47 111 769 63
internal_value=0 0.00218667 0.00303001 0.00376847 -0.00119963 -0.00376799 0.00449356 0.00469224 0.00408338 0.00133814 0.00315731 -0.00118909 -0.00367067 0.0025403 0.00528919 -0.00473425 -0.00234916 -0.00527384 0.0048801 0.00342534 0.00575442 0.0047967 -0.00190336 0.00595686 -0.00452638 0.00311558 -0.00640358 0.00676721 -0.00597679 0.00580231
internal_weight=0 94.7729 84.4788 77.5797 9.88069 7.59824 67.699 66.0481 44.5831 13.6062 9.98107 3.69189 3.62508 2.1218 30.977 10.2941 4.2384 6.89912 27.6171 10.3672 17.2498 8.84228 2.17373 21.4649 1.52494 2.91583 6.05569 12.316 2.73584 8.08832
internal_count=20926 10735 7712 5452 2052 2030 3400 2860 2377 1593 756 623 837 151 784 3023 1076 2260 766 461 305 217 554 483 244 226 1947 200 790 174
shrinkage=0.005


Tree=9
num_leaves=31
num_cat=0
split_feature=0 5 7 6 4 3 2 5 2 1 4 7 3 3 3 1 0 6 6 3 2 4 1 8 8 3 5 2 2 4
split_gain=89.7054 22.0362 19.8859 11.3251 8.31902 6.41083 4.32464 2.04885 2.2803 3.38957 5.36894 4.26019 1.92041 1.83314 2.275 1.61688 1.53224 1.49325 1.45477 1.42791 1.86135 1.30482 1.2323 1.16957 1.09706 1.8248 2.14798 1.51763 0.906285 2.69336
threshold=0.080128205128205135 0.55777777777777793 0.0038166060295865899 0.34009459670481201 2.6830955653782939e-08 0.047748463652868008 0.0045812144802863585 0.98000000000000009 0.013184606965824235 0.23837321080104204 0.00052639138250171246 0.00015080606040508989 0.0021329895966357899 0.037532728820006155 0.043901014684432728 0.025260388545849003 0.40833333333333338 0.56939472734737195 0.56299840093037479 0.003787325368190798 0.29853774695220719 0.00054665937693763216 0.32260398215419012 0.00021599793787010588 0.00043542750214176068 0.023798945210806968 0.84307692307692317 0.0073149716607195459 0.099683106275016864 0.0007160041065586456
decision_type=2 2 2 2 2 2 2 2 2 2 2 2 2 2 2 2 2 2 2 2 2 2 2 2 2 2 2 2 2 2
left_child=-1 16 3 6 -5 -6 -3 8 24 10 -10 -12 -9 21 -15 17 -2 -4 -18 22 -21 -13 -11 -7 25 26 27 -8 29 -14
right_child=1 2 15 4 5 23 7 12 9 19 11 13 28 14 -16 -17 18 -19 -20 20 -22 -23 -24 -25 -26 -27 -28 -29 -30 -31
leaf_value=-0.0087563333914025179 -0.0064106040215756964 -0.0035798923037766335 -0.0035973121683410703 0.0071037479655864108 -0.0064967374007064548 -0.0027420365273451422 0.0039781931877157046 0.0027690404431908082 -0.0051365659728199497 0.007809810452863609 0.0055739069676391598 0.007843490984175399 -0.0025728859603805494 0.005111399329227966 -0.0075997162901683436 -0.0068119051000758279 -0.00080516765226011199 0.0069421706288412223 -0.0077139293070144169 -0.0030460059964000229 0.0056989102043607876 -0.0072648964974819461 0.0036001935847477726 0.0067286980084411184 0.0022148911681494654 0.0073416822344848269 0.0057040273371563536 -0.0064304663091700395 0.0070464627890846725 0.0059637033239472916
leaf_weight=23.408208840060979 5.9481367790140194 1.62344813463278 1.7721547840628766 2.2486112378537637 5.6127254398306832 0.43105310562532384 0.64011675608344265 4.7672888197703314 2.717621847754347 4.3639958612620813 5.5574221110437048 0.15988260251469943 1.0299578761914769 1.348147999262437 0.47640060493722547 4.6490333939436823 3.1794922138797119 0.41472277021966863 1.002116404706612 1.1163817538181322 1.3375272562261669 1.3459882049355654 2.8896150481887162 1.3374242690624667 2.3283398940693578 8.2946703690104169 3.1465667851734906 0.77322365716099739 14.317493635695426 8.9803975191898626
leaf_count=10191 1947 540 538 22 1923 73 48 241 651 36 114 4 216 53 100 1706 765 16 311 112 36 439 53 34 72 94 77 77 163 274
internal_value=0 0.00218495 0.00302809 0.00375508 -0.00131609 -0.00388111 0.00448162 0.00468115 0.00389213 0.00283726 0.0010136 0.00289413 0.00567088 -0.00157758 0.00179245 -0.00514411 -0.00478012 -0.00159859 -0.00246084 0.00501746 0.0017205 -0.0056608 0.00613283 0.00442028 0.0053729 0.00594491 0.00340411 -0.00171627 0.00623952 0.00508538
internal_weight=0 93.81 83.6802 76.8443 9.62981 7.3812 67.2145 65.591 36.4959 21.313 11.6055 8.88784 29.0951 3.33042 1.82455 6.83591 10.1297 2.18688 4.18161 9.70752 2.45391 1.50587 7.25361 1.76848 15.1829 12.8546 4.55991 1.41334 24.3278 10.0104
internal_count=20926 10735 7712 5452 2052 2030 3400 2860 1966 1598 1361 710 894 596 153 2260 3023 554 1076 237 148 443 89 107 368 296 202 125 653 490
shrinkage=0.005


Tree=10
num_leaves=31
num_cat=0
split_feature=0 5 7 6 4 3 2 6 4 1 0 2 7 3 6 7 2 0 0 8 7 3 0 4 4 8 2 2 0 1
split_gain=89.1677 21.8956 19.7977 10.8217 8.18283 8.40645 4.31668 3.03597 1.99661 3.51928 2.54846 3.64694 4.47247 1.93377 1.91696 1.58394 1.38061 1.31013 2.17873 1.23306 1.65989 1.91576 1.08129 1.36236 1.5181 1.00067 1.03936 0.995871 0.977419 0.957988
threshold=0.080128205128205135 0.55777777777777793 0.0038166060295865899 0.34009459670481201 2.6830955653782939e-08 0.047748463652868008 0.0045812144802863585 0.56939472734737195 7.9013919207708319e-05 0.19926863755878899 0.75961538461538469 0.013184606965824235 0.00039073555712105401 0.0042067612903422839 0.23383186950765875 2.9824508954316802e-07 0.0028031948957101499 0.39230769230769241 0.091666666666666688 0.00012516805703875151 0.0037218489516662174 0.0039828891238830226 0.93095238095238109 1.71753301715958e-06 1.2431777024225007e-05 0.00043542750214176068 0.0076809576246778784 0.20224969042658109 0.48684210526315791 0.2289734950761865
decision_type=2 2 2 2 2 2 2 2 2 2 2 2 2 2 2 2 2 2 2 2 2 2 2 2 2 2 2 2 2 2
left_child=-1 13 3 6 -5 -6 -3 -4 9 22 11 25 14 16 17 27 -2 18 -13 20 21 -14 23 -8 -25 26 28 -11 -10 -16
right_child=1 2 7 4 5 -7 8 -9 10 15 -12 12 19 -15 29 -17 -18 -19 -20 -21 -22 -23 -24 24 -26 -27 -28 -29 -30 -31
leaf_value=-0.0087447736722809765 0.00056007762514389094 -0.0036241505876377241 -0.0062407690909295366 0.0069900517309695797 -0.0069765352623659587 0.0052405103778299812 -0.0063144826534857939 0.0041792332622504194 0.0010239676807310503 0.0044610678828349492 0.0065720131256361341 0.0064660367904945731 0.0061204017699197444 -0.0062176750614756004 0.0044874821722514502 0.0060395935805721184 -0.0071780773805639343 0.0035965189826516505 -0.0076510072194160925 0.0030307815144039732 0.0077803740971455482 -0.0051446805939482773 0.0037281504771964451 0.0046069322549121801 -0.0036713819506540364 0.0027388875646969556 0.0070803419201647608 -0.0023400174287184416 0.0060755366861675562 0.0087132807559531823
leaf_weight=23.316585909575224 2.239127864479086 1.6022446883143846 6.1480113967554635 2.320308627560733 5.3963390379212797 1.9051700169220565 1.1998287586029612 0.78871701611205924 1.5623975566122705 1.0862970254383966 19.167559517198242 0.43076964397914508 0.43015804095193733 7.0364190737018362 2.903989038662985 6.4955734858522192 0.77624379110056896 3.5360860069049522 0.74770923506002873 1.2195406540995462 0.34174833935685445 3.0777467299485579 1.0744659783085806 1.0641740201972427 1.1547400364652274 2.2744048344902685 11.172907598083837 1.0668910879176108 2.473575082141906 2.4921116285258904
leaf_count=10191 512 540 2186 22 1923 107 221 74 62 32 340 17 3 2274 176 127 237 195 155 101 6 722 61 71 236 79 150 40 44 22
internal_value=0 0.0021881 0.00303086 0.00376707 -0.00118944 -0.00378876 0.00448341 -0.005056 0.00468335 0.00294269 0.0051247 0.00427539 0.00248238 -0.00478204 0.00440409 0.00480764 -0.00143195 0.0020749 -0.0024908 -0.00135055 -0.00273852 -0.0037633 -0.000647075 -0.00202215 0.000298834 0.00583217 0.00629475 0.00109117 0.00411998 0.00643911
internal_weight=0 93.1853 83.1335 76.1967 9.62182 7.30151 66.5749 6.93673 64.9727 13.142 51.8307 32.6631 15.1799 10.0518 10.1107 8.64876 3.01537 4.71456 1.17848 5.06919 3.84965 3.5079 4.49321 3.41874 2.21891 17.4833 15.2089 2.15319 4.03597 5.3961
internal_count=20926 10735 7712 5452 2052 2030 3400 2260 2860 788 2072 1732 1397 3023 565 199 749 367 172 832 731 725 589 528 307 335 256 72 106 198
shrinkage=0.005


Tree=11
num_leaves=31
num_cat=0
split_feature=0 5 7 6 4 3 2 6 5 2 1 4 7 7 3 5 3 3 2 4 2 1 8 7 2 2 1 4 2 3
split_gain=87.007 21.7516 19.2095 10.3009 7.69933 8.38031 4.14178 2.75609 2.07319 2.41472 3.86442 5.03639 3.23245 2.0979 1.75396 1.69719 1.63025 1.42611 1.7955 1.37787 1.27031 1.22894 1.19926 0.997409 1.21743 2.20535 0.852947 1.18089 0.972454 0.826536
threshold=0.080128205128205135 0.55777777777777793 0.0038166060295865899 0.34009459670481201 2.6830955653782939e-08 0.047748463652868008 0.0045812144802863585 0.56939472734737195 0.98000000000000009 0.013184606965824235 0.23837321080104204 0.00052639138250171246 0.00034633774774483296 0.0037218489516662174 0.0021329895966357899 0.65833333333333344 0.0042067612903422839 0.003787325368190798 0.29853774695220719 0.00050653983870451163 0.0028031948957101499 0.32260398215419012 3.9796682537314912e-07 0.00022917244580582938 0.012370238196082078 0.099683106275016864 0.22019226968700187 0.00025448481553753049 0.11276980238924043 0.084794533361441757
decision_type=2 2 2 2 2 2 2 2 2 2 2 2 2 2 2 2 2 2 2 2 2 2 2 2 2 2 2 2 2 2
left_child=-1 16 3 6 -5 -6 -3 -4 9 19 11 -11 -13 15 -10 -14 20 21 -19 22 -2 -12 -8 26 -25 -26 27 28 -16 -7
right_child=1 2 7 4 5 29 8 -9 14 10 17 12 13 -15 23 -17 -18 18 -20 -21 -22 -23 -24 24 25 -27 -28 -29 -30 -31
leaf_value=-0.0086811011617810973 0.0001737741585005774 -0.003549548992610614 -0.00616156635365316 0.0068478102010191902 -0.0068861874593361171 0.0011618916881518931 -0.0036506965554927891 0.0038789589373489641 0.0026785275881812814 -0.0058635582710835797 0.0075317662428296137 0.0047421654895442285 0.0034333406072357387 0.008184153673253973 -0.0025687400638094615 -0.0065960084515803673 -0.0061767472907249214 -0.0046076659534526072 0.0048029374565747409 0.0057575152389540089 -0.0072785705932970146 0.0033454107531855322 0.0055536635026865342 0.0066194780729208515 -0.0036164032896632875 0.0049808717293696562 0.0080427431862072456 0.0065562449605300168 0.0053768433266718051 0.0078479647247271401
leaf_weight=23.095467123668641 2.211638162960297 1.5866257915040467 6.0537611983017987 2.3035399336367828 5.3245433937991038 0.75717709970194835 0.76665311062242725 0.77045562164857972 4.3303988554980632 2.3772551747970301 4.6721509410999698 5.1750949196284637 0.56793695525266308 0.41932671284303058 0.69800659141038213 1.6395082814851774 6.9012838371563703 0.79776087810751084 1.3900327995652331 14.180893870769067 0.77122760377824295 2.8058938169851899 0.65730013395659626 3.6632365647237739 1.0406080577522518 2.634095921413973 7.5517275383463121 8.3862463622353953 0.85897922446019948 1.1866288644960148
leaf_count=10191 512 540 2186 22 1923 79 111 74 241 651 36 162 63 5 111 480 2274 112 36 220 237 53 37 47 212 70 57 138 18 28
internal_value=0 0.00216797 0.00300682 0.00373046 -0.00111778 -0.00364229 0.00443147 -0.00502799 0.00462745 0.0038151 0.00265792 0.000507856 0.00244925 -0.00206811 0.0056149 -0.00401563 -0.00484175 0.00492216 0.00137144 0.00528671 -0.00175305 0.00596097 0.000598057 0.00612695 0.0045797 0.00254628 0.00677592 0.00581379 0.00181479 0.00524352
internal_weight=0 92.48 82.5958 75.7716 9.57189 7.26835 66.1997 6.82422 64.6131 35.4498 19.845 10.1791 7.80187 2.62677 29.1633 2.20745 9.88415 9.66584 2.18779 15.6048 2.98287 7.47804 1.42395 24.8329 7.33794 3.6747 17.495 9.94323 1.55699 1.94381
internal_count=20926 10735 7712 5452 2052 2030 3400 2260 2860 1966 1598 1361 710 548 894 543 3023 237 148 368 749 89 148 653 329 282 324 267 129 107
shrinkage=0.005


Tree=12
num_leaves=31
num_cat=0
split_feature=0 5 7 6 4 3 2 6 5 0 6 7 3 3 6 1 8 6 5 2 2 1 4 1 2 7 2 5 3 4
split_gain=85.5331 21.5134 19.361 9.72613 7.17377 8.70597 4.0354 2.16869 2.08071 7.26592 4.76409 2.43323 1.86624 1.32321 1.6933 1.44672 1.31805 1.30846 1.2684 1.2349 1.08335 6.03677 3.17784 1.89124 1.54105 3.16486 0.955884 0.936429 0.88209 0.730649
threshold=0.080128205128205135 0.55777777777777793 0.0038166060295865899 0.34009459670481201 2.6830955653782939e-08 0.047748463652868008 0.0045812144802863585 0.56939472734737195 0.69615384615384623 0.162280701754386 0.055624570665557156 6.8009900710030915e-06 0.0061979585047553234 0.0019853685663444127 0.067015288984362806 0.19926863755878899 0.00012516805703875151 0.049051100378294889 0.82575757575757591 0.0024071788174679417 0.094487895078153986 0.10993118177503561 0.0006681791080582688 0.013652036156928527 0.033362550899106495 1.0000000180025095e-35 0.39927145935204533 0.98000000000000009 0.084794533361441757 0.0057300743198573619
decision_type=2 2 2 2 2 2 2 2 2 2 2 2 2 2 2 2 2 2 2 2 2 2 2 2 2 2 2 2 2 2
left_child=-1 12 3 6 -5 -6 -3 -4 10 -10 16 26 19 14 -11 27 -8 -15 -17 -2 21 22 23 -19 -24 -26 -12 -16 -7 -22
right_child=1 2 7 4 5 28 8 -9 9 13 11 -13 -14 17 15 18 -18 20 -20 -21 29 -23 24 -25 25 -27 -28 -29 -30 -31
leaf_value=-0.0086256469211477838 -0.00023759818035104348 -0.0035370996183785391 -0.0061420620464925522 0.0067056479087493591 -0.0068573726267434579 0.00059323636147253802 -0.00030597853376692795 0.0031426877673883815 -0.0072455690927718209 0.0084073700722058983 -0.00085822384149874999 -0.0070618795376552607 -0.0065269805256330362 0.0011572282616042243 -0.0058007770066446432 0.0076758167186652742 0.0070716131943675611 0.0055202984593350976 0.0019871668211106077 -0.0070841052095463311 0.0060870785048458944 -0.0052758897835009635 0.0065799309266597232 -0.0041231082937236993 0.0057190101457948129 -0.0066983435038526721 0.0077624902812921549 0.0011295679247467656 0.0076713393155063252 0.0087133614215338471
leaf_weight=22.98433222057065 2.6179823584388928 1.5641623799456272 5.978340239962562 2.2890964839607459 5.2188140215585008 0.65030745428521219 0.74907743232324664 0.70286278333514918 1.2047741799615312 1.3415956874378006 1.006351446034387 1.5550814741291104 6.2048472733004019 1.6911736531183112 0.69029914645943802 1.5037885112687943 3.1563611754681915 0.8403837585356152 2.8126821413170546 0.88000223855487991 17.854198483051736 1.3678771458799008 19.313115920289423 1.2871070429682729 2.0075331199914213 0.68934006593190122 0.47255093231797207 1.6584791364148259 1.3621700586518271 3.1095231699291608
leaf_count=10191 636 540 2186 22 1923 79 100 74 230 16 90 257 2110 136 158 15 41 42 106 277 401 296 301 326 32 145 3 152 28 13
internal_value=0 0.00216011 0.00299243 0.00371533 -0.00100857 -0.00345055 0.00439803 -0.00516531 0.00459103 0.00490381 0.00200508 -0.00269524 -0.00488053 0.00516441 0.00328225 0.00225065 0.00565656 0.00547733 0.003969 -0.00196 0.00563455 0.00494242 0.00552149 -0.00031385 0.00608554 0.00254505 0.00189634 -0.00090724 0.00538414 0.00647663
internal_weight=0 91.7799 82.077 75.3958 9.52039 7.23129 65.8755 6.6812 64.3113 57.3719 6.93942 3.03398 9.70283 56.1671 8.00684 6.66525 3.90544 48.1603 4.31647 3.49798 46.4691 25.5054 24.1375 2.12749 22.01 2.69687 1.4789 2.34878 2.01248 20.9637
internal_count=20926 10735 7712 5452 2052 2030 3400 2260 2860 2369 491 350 3023 2139 447 431 141 1692 121 913 1556 1142 846 368 478 177 93 310 107 414
shrinkage=0.005


Tree=13
num_leaves=31
num_cat=0
split_feature=0 5 7 6 3 4 2 6 3 5 2 1 4 7 7 3 8 3 2 8 3 5 2 1 2 2 3 7 2 2
split_gain=84.608 21.4584 19.9474 8.84219 6.49415 10.7285 4.01442 1.90994 1.82724 1.78703 2.14381 3.55687 5.12709 2.5852 2.45295 1.69339 1.55342 1.54014 1.70362 1.27411 1.65304 1.74408 1.21256 1.09962 0.98737 0.90368 0.794776 0.791524 1.09005 1.8315
threshold=0.080128205128205135 0.55777777777777793 0.0038166060295865899 0.34009459670481201 0.084794533361441757 2.6830955653782939e-08 0.0045812144802863585 0.56939472734737195 0.0061979585047553234 0.98000000000000009 0.013184606965824235 0.23837321080104204 0.00052639138250171246 0.00015080606040508989 0.0037218489516662174 0.0021329895966357899 7.7135620929885148e-06 0.003787325368190798 0.29853774695220719 0.00043542750214176068 0.023798945210806968 0.84307692307692317 0.0024071788174679417 0.32260398215419012 0.0056010651976104763 0.0073149716607195459 0.047748463652868008 0.00022917244580582938 0.012370238196082078 0.099683106275016864
decision_type=2 2 2 2 2 2 2 2 2 2 2 2 2 2 2 2 2 2 2 2 2 2 2 2 2 2 2 2 2 2
left_child=-1 8 3 6 5 -5 -3 -4 22 10 19 12 -12 -14 16 -11 -15 23 -19 20 21 25 -2 -13 -21 -8 -7 -17 -29 -30
right_child=1 2 7 4 -6 26 9 -9 -10 15 11 17 13 14 -16 27 -18 18 -20 24 -22 -23 -24 -25 -26 -27 -28 28 29 -31
leaf_value=-0.0085887553824983108 -0.00032061006824390394 -0.0035516676964264084 -0.0062435779371627651 0.006532757322309333 0.0077718587687833161 -0.0068832185394154038 0.0024787399741716368 0.0025691531267301748 -0.0065489984914632853 0.0024931283607710704 -0.0058406037320359074 0.0074194067933301897 0.0050246334548110687 -0.0064382792113601229 0.0080369551259697521 0.0065800480840154741 0.001482071299399084 -0.0056010700850144066 0.0042518874822754602 0.0051158152024421812 0.0069864547654816889 0.0051311934650416736 -0.0071332621456884947 0.0034641671785316025 -0.0018325401257636876 -0.0066686237302376284 -0.0006274704520725223 0.0064993884856325429 -0.0035245635838669128 0.0046852870900644271
leaf_weight=22.920167777803726 2.6217471256386475 1.5531120321247716 5.9356743505923069 2.2868572957813722 1.8460914477473114 5.1868551225634292 0.51783165626693406 0.68584688985720266 6.1329720738576725 4.0234156388323781 2.3349335133098084 4.7302002327050996 4.5566281473729759 1.448028247687035 0.62116756010800589 17.294819628936242 1.0813915437320245 0.65511141426395614 1.3281275426270438 0.99948184518143479 9.0807211506180447 2.9487244130577892 0.86984525655861933 2.7959615236613899 1.046713972231373 0.56414821196813136 0.56281447166111309 3.8729763205628833 0.89473381941206787 2.8216692232526839
leaf_count=10191 636 540 2186 22 28 1923 48 74 2110 241 651 36 114 458 5 324 133 112 36 21 94 77 277 53 51 77 79 47 212 70
internal_value=0 0.00215617 0.00298829 0.00372224 -0.000684875 -0.00262749 0.00439056 -0.00533077 -0.00490518 0.00458445 0.00381968 0.00272556 0.000650274 0.00261671 -0.000865812 0.00550272 -0.00305213 0.0049171 0.000997219 0.00523097 0.00580364 0.00313889 -0.00201782 0.00595004 0.00156144 -0.00229073 -0.00627087 0.00598932 0.00464317 0.00270874
internal_weight=0 91.2986 81.674 75.0525 9.88262 8.03653 65.1699 6.62152 9.62456 63.6168 34.7092 19.5515 10.0421 7.70722 3.15059 28.9076 2.52942 9.5094 1.98324 15.1576 13.1114 4.0307 3.49159 7.52616 2.0462 1.08198 5.74967 24.8842 7.58938 3.7164
internal_count=20926 10735 7712 5452 2052 2024 3400 2260 3023 2860 1966 1598 1361 710 596 894 591 237 148 368 296 202 913 89 72 125 2002 653 329 282
shrinkage=0.005


Tree=14
num_leaves=31
num_cat=0
split_feature=0 5 7 6 3 4 2 3 5 0 8 1 1 2 2 6 4 1 4 2 6 1 5 1 4 6 4 5 7 0
split_gain=83.0567 20.9237 20.7287 7.89578 7.69775 10.7502 3.90263 1.90088 1.84047 6.28084 4.65123 3.17476 1.51239 1.46282 4.98216 3.19982 1.60531 2.40656 1.26104 1.18891 1.12393 1.08697 2.91711 1.80226 0.938852 1.15178 0.895915 0.813722 0.715334 2.48997
threshold=0.080128205128205135 0.55777777777777793 0.0038166060295865899 0.34009459670481201 0.084794533361441757 2.6830955653782939e-08 0.0045812144802863585 0.0061979585047553234 0.69615384615384623 0.162280701754386 0.00012516805703875151 0.68196981681373037 0.016398078284241842 0.013184606965824235 0.094487895078153986 0.17010403832783086 0.00068996166805714921 0.2477701028416199 0.0057300743198573619 0.0024071788174679417 0.56939472734737195 0.2289734950761865 0.91287878787878796 0.41068047636597516 0.0006681791080582688 0.18670301628980421 0.00019332023285683803 0.72363636363636374 0.00015080606040508989 0.20416666666666669
decision_type=2 2 2 2 2 2 2 2 2 2 2 2 2 2 2 2 2 2 2 2 2 2 2 2 2 2 2 2 2 2
left_child=-1 7 3 6 5 -5 -3 19 10 -10 11 12 -8 24 15 -15 17 27 21 -2 -4 22 -16 -23 25 -11 -24 -17 -18 -30
right_child=1 2 20 4 -6 -7 8 -9 9 13 -12 -13 -14 14 18 16 28 -19 -20 -21 -22 23 26 -25 -26 -27 -28 -29 29 -31
leaf_value=-0.0085365663483925446 -0.00026063977566687362 -0.0035306262737693039 -0.006280696292793167 0.0064155937642560593 0.0078045978746843526 -0.0064464911200577029 0.0012904617719936638 -0.0065517743061906941 -0.0077284595179801952 0.0059932304504834721 0.0058462132253215525 0.0076375047529582945 -0.0076199750952191253 -0.0045175656251231922 -0.0050987868842423964 0.0059849854511738977 0.0053709874850262239 0.0063142101077879181 0.0085693910798738185 -0.0070540595875111609 0.0010435104675734707 0.0068752302649233987 0.0020148647990348408 0.0027380836452782259 0.0065764714559548559 -0.0022780389352746347 0.0057021196544328415 -0.0060569661036105581 0.0086576164116438856 -0.0044441890741504855
leaf_weight=22.780306805623695 2.6374378032051013 1.534467730205505 5.8859496435616157 2.2876672241836769 2.2287298269802704 5.6046030283905566 0.65722189005464304 6.0620311197126284 0.97808452509343524 1.0699564540991584 3.6379235127242282 0.60740037169307459 1.7291530413785947 1.8677405921043808 0.83544314850588008 0.15798913897015188 3.9155106929829344 0.76330573670566071 3.0741518440190694 0.85211706964764733 0.57495587435550977 12.16201595473103 2.2609836151823384 3.3596038406249127 16.595110670430586 0.6938119459664448 6.0705610639415681 1.2521622732747344 0.64436984644271411 0.82940879580564797
leaf_count=10191 636 540 2186 22 28 2002 71 2110 230 56 86 4 330 459 158 10 76 22 13 277 74 172 110 90 163 94 105 380 7 224
internal_value=0 0.00214099 0.00296366 0.00370567 -0.000401041 -0.00271826 0.00434812 -0.00485944 0.00453953 0.00483186 0.00204761 -0.00256832 -0.00516599 0.00505301 0.00448297 0.0013431 0.00279049 -0.000836947 0.00554952 -0.00191953 -0.00562892 0.0051735 0.00380833 0.00597976 0.00620785 0.00273957 0.00470149 -0.00470782 0.0042534 0.00128422
internal_weight=0 90.8299 81.2783 74.8174 10.121 7.89227 64.6964 9.55159 63.1619 56.5302 6.6317 2.99378 2.38637 55.5521 37.1932 9.43049 7.56275 2.17346 27.7628 3.48955 6.46091 24.6886 9.16699 15.5216 18.3589 1.76377 8.33154 1.41015 5.38929 1.47378
internal_count=20926 10735 7712 5452 2052 2024 3400 3023 2860 2369 491 405 401 2139 1826 1178 719 412 648 913 2260 635 373 262 313 150 215 390 307 231
shrinkage=0.005


Tree=15
num_leaves=31
num_cat=0
split_feature=0 5 7 6 3 4 2 3 2 2 4 1 7 7 4 3 8 4 2 7 7 8 1 2 1 6 1 4 5 1
split_gain=81.8457 19.5804 20.2615 7.73303 7.42999 10.6088 3.79162 2.28519 1.67057 5.79953 2.79773 2.69881 2.45733 2.45609 1.66631 1.79786 1.46899 1.44035 1.43891 1.55633 1.36766 1.31633 1.28927 1.25122 1.11938 0.952379 0.893597 1.06207 0.884241 0.776218
threshold=0.080128205128205135 0.55777777777777793 0.0038166060295865899 0.34009459670481201 0.084794533361441757 2.6830955653782939e-08 0.0045812144802863585 0.0042067612903422839 0.013184606965824235 0.094487895078153986 0.00068996166805714921 0.2477701028416199 0.00015080606040508989 0.0037218489516662174 0.0057300743198573619 0.014489025404128704 0.0012411654345449302 0.00050653983870451163 0.14182854182854185 0.00039073555712105401 5.6158662655082424e-05 0.0004117471597982738 0.68196981681373037 0.0028031948957101499 0.0067065902891785363 0.18413630508712767 0.23837321080104204 0.0011171647924428901 0.88444444444444448 0.004338909775896454
decision_type=2 2 2 2 2 2 2 2 2 2 2 2 2 2 2 2 2 2 2 2 2 2 2 2 2 2 2 2 2 2
left_child=-1 7 3 6 5 -5 -3 23 17 10 11 29 -12 16 15 18 -14 25 20 26 -11 -19 -21 -2 -4 -8 27 -20 -17 -10
right_child=1 2 24 4 -6 -7 8 -9 9 14 12 -13 13 -15 -16 28 -18 21 19 22 -22 -23 -24 -25 -26 -27 -28 -29 -30 -31
leaf_value=-0.0084766075221477197 0.0007065362539856035 -0.0034779820651653632 0.00220819414025876 0.0062797366393650246 0.00752166871152549 -0.0065824366118745073 0.0044405995343984725 -0.0062979060756616426 0.0036921990424926771 0.0035066682192414038 0.0046020370905058604 0.0039746732206891464 -0.0059488770827458848 0.0079064080099361649 0.0082842278237913233 -0.008863343392627003 0.002934280195149522 0.0064441815439413401 -0.00015358967060933129 -0.0056796365360262417 0.0072922864209061531 0.0025837900629411361 0.0042259416195092698 -0.0068885853563508967 -0.0061504622353380899 -0.0025996701762900686 0.0052007440402245435 0.0072511443760358797 0.0011200208298208574 -0.00661538404874792
leaf_weight=22.741157049371395 2.3415190740488456 1.5246600207174186 0.42930414713919063 2.2785154990851861 2.2719477658392861 5.4088442651554942 1.1533215426607082 6.5160965890390798 0.19901107251644035 3.3374049140839004 5.0611817019525915 1.0064745137933639 1.6768142501823611 0.59456841740757216 3.5714184540556735 0.27174850704613973 0.64419241505675007 18.192234170855958 1.8527308786287897 0.75053474493324646 8.368068222422151 2.5132777174003413 0.58417031727731228 0.70567672536708403 5.977649861946702 0.82325494452379633 8.0276533556170744 0.65561387687921513 1.2066443876828996 2.2210954576730728
leaf_count=10191 512 540 79 22 28 2002 83 2274 21 120 133 47 555 5 18 89 63 219 141 68 103 71 4 237 2181 110 144 6 91 769
internal_value=0 0.00213793 0.00294052 0.00367718 -0.000422324 -0.00277012 0.00431278 -0.00462649 0.00450219 0.00388789 0.00087251 -0.00290616 0.00249572 -0.00116067 0.00508908 0.00463362 -0.00348337 0.00558631 0.00496902 0.00374241 0.00621295 0.0059756 -0.00134419 -0.00105236 -0.00559038 0.00150829 0.00438679 0.00178181 -0.000715056 -0.00576777
internal_weight=0 90.1656 80.6023 74.1954 9.95931 7.68736 64.2361 9.56329 62.7114 40.0293 11.4033 3.42658 7.97676 2.91558 28.626 25.0546 2.32101 22.6821 23.5762 11.8707 11.7055 20.7055 1.33471 3.0472 6.40695 1.97658 10.536 2.50834 1.47839 2.42011
internal_count=20926 10735 7712 5452 2052 2024 3400 3023 2860 2377 1593 837 756 623 784 766 618 483 586 363 223 290 72 749 2260 193 291 147 180 790
shrinkage=0.005


Tree=16
num_leaves=31
num_cat=0
split_feature=0 5 7 6 3 4 2 3 5 2 1 4 7 7 8 3 3 1 4 7 2 1 8 8 2 3 7 0 7 2
split_gain=80.1477 18.9402 20.018 7.31603 7.41918 10.3207 3.69308 2.26033 1.98031 2.34144 3.26995 4.20486 2.16057 2.27898 1.62244 1.46178 1.3946 1.54615 1.35118 1.33476 1.22669 1.03437 1.00648 0.773477 0.77282 1.15868 0.776684 0.665726 0.645893 1.05364
threshold=0.080128205128205135 0.55777777777777793 0.0038166060295865899 0.34009459670481201 0.084794533361441757 2.6830955653782939e-08 0.0045812144802863585 0.0042067612903422839 0.98000000000000009 0.013184606965824235 0.23837321080104204 0.00052639138250171246 0.00015080606040508989 0.0037218489516662174 7.7135620929885148e-06 0.0021329895966357899 0.003787325368190798 0.32260398215419012 0.00050653983870451163 8.1781205990432308e-05 0.0028031948957101499 0.0067065902891785363 3.9796682537314912e-07 0.0032481453847804475 0.012370238196082078 0.041237082076578647 0.0010008063378589686 0.48684210526315791 0.00022917244580582938 0.012370238196082078
decision_type=2 2 2 2 2 2 2 2 2 2 2 2 2 2 2 2 2 2 2 2 2 2 2 2 2 2 2 2 2 2
left_child=-1 7 3 6 5 -5 -3 20 9 18 11 -11 -13 14 -14 -10 19 -18 22 -12 -2 -4 -8 -16 25 26 -20 -28 -17 -30
right_child=1 2 21 4 -6 -7 8 -9 15 10 16 12 13 -15 23 28 17 -19 24 -21 -22 -23 -24 -25 -26 -27 27 -29 29 -31
leaf_value=-0.0084115579515814474 0.00071625401671799162 -0.0034659243234221133 0.0019429563242581915 0.006173486959673148 0.007413305003485967 -0.0065620181924652765 -0.0038163605264336792 -0.0062300694934489488 0.0025118449529937508 -0.0057032342742502178 0.0028435900275726534 0.0045054938052845632 -0.0071779954351255974 0.0074422364653272269 0.0035533415831014376 0.0064149884712513842 -0.0063860370468228978 0.0035636329156242155 0.0066014232458908072 0.0072488378048155121 -0.0068415931204617144 -0.0061805655296163723 0.0047119495273032401 -0.0067323713899246707 0.0081114075847657542 0.0014509361841935524 0.0011660489009736341 0.0059306180097982095 0.006395790061266571 0.0026495953504394381
leaf_weight=22.614361469226424 2.3551227183779688 1.5087302319006983 0.4198155872290944 2.2698246203362924 2.3510422675171867 5.3177740009268746 0.70764983154367544 6.4507400130387396 3.7244300146121558 2.1918994346633571 2.789908263133837 4.2153513627126813 1.2642083627870313 0.61826236080378283 0.81153355829883345 16.969990791520107 0.54147309204563487 1.4000151575310154 6.9596568159759027 4.4816853678785264 0.69540666602551926 5.8836361721623689 0.6768573927693069 0.23590750410221517 2.4041439895518115 1.9236871341709036 1.4753441244829448 1.4573352793231604 4.0433730361983171 3.5030899605480954
leaf_count=10191 512 540 79 22 28 2002 111 2274 241 651 60 114 458 5 88 324 77 71 88 29 237 2181 37 45 12 60 46 14 47 282
internal_value=0 0.00212188 0.00291318 0.00364326 -0.000347493 -0.0027522 0.00426392 -0.00455301 0.00445082 0.00364085 0.00244014 0.000354876 0.00221328 -0.0010846 -0.00336515 0.00543042 0.00455349 0.000788711 0.0050682 0.00555867 -0.00100665 -0.00563953 0.000352957 0.00123677 0.00552729 0.00500151 0.00569197 0.0035337 0.0058738 0.0046568
internal_weight=0 89.6479 80.1466 73.8432 9.93864 7.5876 63.9045 9.50127 62.3958 34.1549 18.5502 9.33716 7.14526 2.92991 2.31165 28.2409 9.21308 1.94149 15.6047 7.27159 3.05053 6.30345 1.38451 1.04744 14.2202 11.816 9.89234 2.93268 24.5165 7.54646
internal_count=20926 10735 7712 5452 2052 2024 3400 3023 2860 1966 1598 1361 710 596 591 894 237 148 368 89 749 2260 148 133 220 208 148 60 653 329
shrinkage=0.005


Tree=17
num_leaves=31
num_cat=0
split_feature=0 5 7 6 3 4 2 3 5 0 8 1 1 3 2 2 6 4 1 4 4 1 5 1 1 4 5 0 0 6
split_gain=78.9642 18.2329 19.5484 7.44459 7.22458 10.047 3.72168 2.68107 1.81623 5.08528 4.02189 2.64791 1.78872 1.65556 1.40204 4.88079 2.97825 1.2659 2.31769 1.17983 1.11574 1.09012 2.39118 1.68593 1.08362 0.941233 0.787457 0.708606 0.67008 0.976804
threshold=0.080128205128205135 0.55777777777777793 0.0038166060295865899 0.34009459670481201 0.084794533361441757 2.6830955653782939e-08 0.0045812144802863585 0.0014787244720373433 0.69615384615384623 0.162280701754386 0.00012516805703875151 0.68196981681373037 0.016398078284241842 0.00039163615021728024 0.013184606965824235 0.094487895078153986 0.17010403832783086 0.00068996166805714921 0.2477701028416199 0.0057300743198573619 7.5860363072093236e-07 0.2289734950761865 0.91287878787878796 0.41068047636597516 0.0067065902891785363 0.00019332023285683803 0.72363636363636374 0.65476190476190488 0.39230769230769241 0.56299840093037479
decision_type=2 2 2 2 2 2 2 2 2 2 2 2 2 2 2 2 2 2 2 2 2 2 2 2 2 2 2 2 2 2
left_child=-1 7 3 6 5 -5 -3 13 10 -10 11 12 -8 -2 -11 16 -16 18 26 21 -15 22 -17 27 -4 -24 -18 -23 -9 -30
right_child=1 2 24 4 -6 -7 8 28 9 14 -12 -13 -14 20 15 19 17 -19 -20 -21 -22 23 25 -25 -26 -27 -28 -29 29 -31
leaf_value=-0.0083637370115861205 -0.0052996237484649348 -0.0035314817771714127 0.002054169995115253 0.0060121001858182187 0.0072065699295859979 -0.0065510512903471695 0.0016586594327462907 -0.0069307887992510701 -0.0074013267739861015 0.0059999441008990687 0.0054393243886165892 0.0074370871112651596 -0.0077506970627825049 0.00655124268189903 -0.0047895711156428654 -0.0052928519384654801 0.0059355613991048427 0.003903855007845184 0.0061489314273264137 0.0083354096410111402 -0.0039246357025764121 0.007829239068048003 0.0012928526165395676 0.0024646016890663559 -0.0061451390454260041 0.0054173932406965733 -0.0059990456731987699 0.0053957119607799765 -0.0017554049578356898 -0.0078258575801590357
leaf_weight=22.535529648768716 0.75832849380094414 1.4991008122451592 0.43286127771716465 2.2731796409934741 2.3777102385647595 5.3059435458853841 0.73809506162069727 4.6611309890868142 0.84982522705104102 19.483227844000794 3.6437693341867998 0.54732088744640339 1.5999109643744303 1.0149624972837044 1.7129002995789031 0.69818237144500539 0.15614296915009651 5.0797486426308751 0.78784292726777483 3.06061120587401 0.33908376889303316 6.2628307653358188 1.8433060606475917 2.9799793525598934 5.833358067786321 5.5415191968204454 1.20366882358212 5.7266853475011885 1.8979952660156416 1.0181771542411295
leaf_count=10191 237 540 79 22 28 2002 71 1690 230 313 86 4 330 76 459 158 10 307 22 13 106 76 110 90 2181 105 380 96 582 332
internal_value=0 0.00211 0.00289796 0.0036219 -0.000397495 -0.00278303 0.00425299 -0.00436604 0.00444147 0.00473549 0.00194727 -0.0024627 -0.00478022 0.000615246 0.00492462 0.00432693 0.00113831 0.00254323 -0.000675004 0.00541862 0.00392785 0.00503136 0.00355169 0.00583034 -0.00557874 0.00438788 -0.00462863 0.00666689 -0.00575471 -0.00387489
internal_weight=0 89.3274 79.6377 73.3715 9.95683 7.57912 63.4147 9.68968 61.9156 55.3865 6.5291 2.88533 2.33801 2.11237 54.5366 35.0534 8.9403 7.2274 2.14765 26.1131 1.35405 23.0525 8.08301 14.9695 6.26622 7.38483 1.35981 11.9895 7.5773 2.91617
internal_count=20926 10735 7712 5452 2052 2024 3400 3023 2860 2369 491 405 401 419 2139 1826 1178 719 412 648 182 635 373 262 2260 215 390 172 2604 914
shrinkage=0.005


Tree=18
num_leaves=31
num_cat=0
split_feature=0 7 5 6 3 4 3 2 3 5 2 1 4 7 7 3 8 5 3 4 3 1 4 6 6 2 7 2 5 4
split_gain=78.298 18.0197 17.734 7.65979 6.99691 9.97158 4.64932 3.83905 2.7248 1.6514 2.01419 3.35111 4.31778 2.28206 2.30855 1.53235 1.42024 1.35349 1.3505 1.13751 1.08462 0.976605 0.953894 0.889488 1.04881 2.00326 0.830647 0.780425 0.715577 0.838624
threshold=0.080128205128205135 0.0038166060295865899 0.55777777777777793 0.34009459670481201 0.084794533361441757 2.6830955653782939e-08 0.0013428894669838343 0.0045812144802863585 0.00039163615021728024 0.98000000000000009 0.013184606965824235 0.23837321080104204 0.00052639138250171246 0.00015080606040508989 0.0037218489516662174 0.023798945210806968 7.7135620929885148e-06 0.84307692307692317 0.0021329895966357899 1.9385975350452572e-05 0.039097329245555583 0.0067065902891785363 3.863728959013474e-07 0.28625892366419242 0.17721283988524997 0.005546695048418101 0.0023529309805739606 0.0087399497412345168 0.65833333333333344 0.00059771616380087335
decision_type=2 2 2 2 2 2 2 2 2 2 2 2 2 2 2 2 2 2 2 2 2 2 2 2 2 2 2 2 2 2
left_child=-1 2 6 7 5 -5 8 -4 -2 10 15 12 -12 -14 16 23 -15 -13 -11 -19 -17 -3 -10 24 25 -9 -20 -22 -18 -30
right_child=1 21 3 4 -6 -7 -8 9 22 18 11 17 13 14 -16 20 28 19 26 -21 27 -23 -24 -25 -26 -27 -28 -29 29 -31
leaf_value=-0.0083200230438673604 -0.0056891785208469164 0.00036183128362722453 -0.0036590497851839254 0.0059202804554171987 0.0069169275408497025 -0.0065878006890030261 -0.0057000926099730091 0.0075080090750009381 0.0073287930748265444 0.0024498867064243566 -0.0060119555570228144 0.006189567254295896 0.0046542733353618091 -0.0071157478442674975 0.0075826994639237059 0.0071558076436662107 0.0060464515068686152 -0.0039605698765434608 0.0059479381930168194 0.0036540183628313138 0.00083482874111377454 -0.0063332229117109154 -0.0014090912666408196 -0.0019427153627338159 0.0055086867253428453 -0.0045080232444807055 0.0016609330716091154 0.0059939551165843555 0.0079270215610017774 -0.0059774801428209724
leaf_weight=22.559144715080038 0.78734212426934247 0.59754615207202633 1.496345008839852 2.2785767707973701 2.4345524037489668 5.2988058303017169 7.081626198021695 0.57435873360372969 1.4368544869357718 3.5602252285461899 2.0371461138129252 5.6373845188645628 4.0939433944877237 1.2314998437650508 0.59187733707949508 7.2745467748027277 0.40394765138626088 0.63223960157483849 23.625612374860797 2.1870641575660557 1.3889191392809155 6.1580000655958429 0.39909415540751059 0.8412171157542615 2.7436019112356007 0.87570851319469512 1.1866763138677914 1.5522516372147945 0.14331367961131036 0.44566531095188111
leaf_count=10191 236 142 540 22 28 2002 2413 17 54 241 651 106 114 458 5 71 15 30 598 101 40 2341 97 47 81 83 55 29 3 115
internal_value=0 0.002109 0.00275383 0.00360311 -0.000457258 -0.00282653 -0.00359377 0.0042533 0.0020923 0.00444731 0.00368064 0.00251821 0.000385211 0.0022711 -0.00119322 0.0050072 -0.00352832 0.00477498 0.00532969 0.00194642 0.00611987 -0.00574103 0.00542937 0.00274961 0.00369085 0.00025142 0.00574291 0.00355764 0.00092106 -0.00259416
internal_weight=0 88.9959 82.2404 72.5355 10.0119 7.57738 9.70492 62.5235 2.62329 61.0272 32.6547 17.4041 8.94739 6.91025 2.8163 15.2506 2.22443 8.45669 28.3725 2.8193 10.2157 6.75555 1.83595 5.03489 4.19367 1.45007 24.8123 2.94117 0.992927 0.588979
internal_count=20926 10735 8252 5452 2052 2024 2800 3400 387 2860 1966 1598 1361 710 596 368 591 237 894 131 140 2483 151 228 181 100 653 69 133 118
shrinkage=0.005


Tree=19
num_leaves=31
num_cat=0
split_feature=0 7 5 6 3 4 2 3 3 2 2 4 1 7 7 8 4 3 4 4 1 1 5 4 6 1 5 2 0 1
split_gain=77.5572 18.3084 18.7422 7.17781 7.78404 9.83682 3.85247 3.79336 2.1905 1.57205 6.05663 2.42172 2.70141 2.31166 2.3423 1.44345 1.40271 1.74672 1.23158 0.985872 0.966563 1.68845 3.19622 0.916267 0.860122 0.805845 0.797014 0.657716 1.45606 0.655231
threshold=0.080128205128205135 0.0038166060295865899 0.55777777777777793 0.34009459670481201 0.084794533361441757 2.6830955653782939e-08 0.0045812144802863585 0.0013428894669838343 0.00039163615021728024 0.013184606965824235 0.094487895078153986 0.00068996166805714921 0.2477701028416199 0.00015080606040508989 0.0037218489516662174 0.0012411654345449302 0.0057300743198573619 0.014489025404128704 0.00050653983870451163 4.8648049332040153e-07 0.41068047636597516 0.2289734950761865 0.92153846153846175 0.00019332023285683803 0.18413630508712767 0.0067065902891785363 0.88444444444444448 0.0075570540558349995 0.48684210526315791 0.68196981681373037
decision_type=2 2 2 2 2 2 2 2 2 2 2 2 2 2 2 2 2 2 2 2 2 2 2 2 2 2 2 2 2 2
left_child=-1 2 7 6 5 -5 -4 8 -2 18 11 12 -11 -13 15 -15 17 20 24 -10 21 22 -12 -24 -8 -3 -19 28 -20 -22
right_child=1 25 3 4 -6 -7 9 -9 19 10 16 13 -14 14 -16 -17 -18 26 27 -21 29 -23 23 -25 -26 -27 -28 -29 -30 -31
leaf_value=-0.0082843276098613933 -0.0055918984792468476 -0.00018202529012215158 -0.0037072494751087997 0.0058383036907309884 0.0069782892210497839 -0.0066006582572844131 0.0043095812683098108 -0.0057247226878560219 0.0064817211807849592 -0.0057808861705581464 -0.0070878316916493022 0.0042979923008528795 0.0040585247167186696 -0.0063351768272537565 0.007565102992527461 0.0027599928204400199 0.0079962391352024868 -0.0086758293370045141 0.00082118810080388448 -0.0029937220248699172 6.91838053327948e-05 0.0065904300258259911 0.0014412472310712532 0.0056962097915619235 -0.0024822950912471576 -0.0063762953646200942 0.0010346223412904267 0.0064304338679239594 0.0060517076152907254 0.0046559595546203552
leaf_weight=22.534481172973756 0.76188236824236666 0.57428592187352379 1.4833259274018917 2.2714719325304014 2.734252855880186 5.2928255506558344 1.2169414403615544 7.0310276866657659 1.3768307203426955 2.3463342087343322 0.64758714078926871 4.9183669849298894 0.99271634477190662 1.5666653794469318 0.57265553297474969 0.60457727767061431 3.6197939339326686 0.25943982193712045 1.889390214113521 0.34287437761668105 1.5211854458320877 11.712938603945075 1.7247400552732868 4.7490052927751094 0.75555840914603312 6.1259444727329537 1.1391484317136926 14.491566085489465 4.4984119874425232 1.5949966460466385
leaf_count=10191 236 142 540 22 28 2002 83 2413 58 790 183 133 47 555 5 63 18 89 71 93 64 159 99 55 110 2341 91 169 50 26
internal_value=0 0.00210189 0.00275034 0.00361498 -0.000251898 -0.00286538 0.00425414 -0.00384892 0.00146575 0.00444831 0.0038247 0.000698089 -0.00285558 0.0022467 -0.00143018 -0.00380265 0.00510012 0.00465114 0.00548448 0.00459251 0.00499634 0.00542312 0.00350315 0.0045626 0.00170798 -0.00584538 -0.000766678 0.00584125 0.00450462 0.00241689
internal_weight=0 88.8167 82.1165 72.6039 10.2986 7.5643 62.3053 9.51262 2.48159 60.822 37.9702 11.0013 3.33905 7.66227 2.7439 2.17124 26.9688 23.349 22.8519 1.71971 21.9505 18.8343 7.12133 6.47375 1.9725 6.70023 1.39859 20.8794 6.3878 3.11618
internal_count=20926 10735 8252 5452 2052 2024 3400 2800 387 2860 2377 1593 837 756 623 618 784 766 483 151 586 496 337 154 193 2483 180 290 121 90
shrinkage=0.005


Tree=20
num_leaves=31
num_cat=0
split_feature=0 7 5 6 3 4 2 3 3 5 2 1 4 7 7 3 8 3 6 8 3 2 7 5 4 1 6 1 1 0
split_gain=76.1779 17.8366 18.5747 7.05718 7.45498 9.56874 3.76732 3.48966 1.93912 1.48768 1.88664 3.56822 3.91706 2.23906 2.005 1.36302 1.27702 1.61994 1.36239 1.24845 1.15126 2.13984 0.861172 0.786818 1.02648 0.759564 0.737214 1.0887 0.734825 0.706797
threshold=0.080128205128205135 0.0038166060295865899 0.55777777777777793 0.34009459670481201 0.074722466123183132 2.6830955653782939e-08 0.0045812144802863585 0.0013428894669838343 0.00039163615021728024 0.98000000000000009 0.013184606965824235 0.23837321080104204 0.00052639138250171246 0.00015080606040508989 0.0037218489516662174 0.0021329895966357899 0.00043542750214176068 0.023798945210806968 0.17721283988524997 7.7135620929885148e-06 0.003787325368190798 0.29853774695220719 8.1781205990432308e-05 0.65833333333333344 0.00056807818655855589 0.0067065902891785363 0.22431282634515454 0.023775175761698446 0.004338909775896454 0.59166666666666679
decision_type=2 2 2 2 2 2 2 2 2 2 2 2 2 2 2 2 2 2 2 2 2 2 2 2 2 2 2 2 2 2
left_child=-1 2 7 6 5 -5 -4 8 -2 10 16 12 28 -14 19 -11 17 18 29 -15 22 -22 -13 -21 -25 -3 -20 -28 -12 -8
right_child=1 25 3 4 -6 -7 9 -9 -10 15 11 20 13 14 -16 -17 -18 -19 26 23 21 -23 -24 24 -26 -27 27 -29 -30 -31
leaf_value=-0.0082255739694376308 -0.005581550749452757 -0.0002671105315522454 -0.003671760634908539 0.0057507815424427478 0.0066891257194493219 -0.006553251021629688 -0.0067407507616920759 -0.0056594563014709257 0.0039903910669279886 0.0022848511269715301 0.0028217337296938421 0.0034797080544897363 0.0044769108161227663 -0.0070240038450864063 0.0067319776191317364 0.0056760292875116629 0.0010354821841117897 0.0067275957772714159 0.0070034537851840807 0.0059623435272165215 -0.0067303491142486427 0.0051331072591012149 0.0071517049504195972 0.0084277834208457275 -0.0074003639175629424 -0.0062998053475020743 -0.0034360564911007883 0.0047170679819933175 -0.0069195927254682554 0.0032626535180182289
leaf_weight=22.44698055513436 0.74947495595551883 0.57071444136090477 1.4710316399577994 2.2632733006030303 2.8263795787934214 5.2352879062527791 0.48323288524988939 6.9810189532581717 1.7995076910592613 3.3670911387307596 0.2174589175265299 2.5374521310441178 4.0890776407904923 1.19585497037042 0.59642721479758609 24.693907506996766 1.7925628826487798 9.009059611707924 1.4578734112437817 0.40263150702230621 0.56774907780345518 1.1500373349990693 4.3067690599709749 0.13828012347221375 0.39510185236576945 6.0845104164909571 0.58067358564585436 1.3885458516888318 1.7638915628194807 0.27825750061310828
leaf_count=10191 236 142 540 22 36 1994 67 2413 151 241 21 60 114 458 5 653 72 94 29 15 112 36 29 1 117 2341 52 40 630 14
internal_value=0 0.00208884 0.00272974 0.00359565 -0.000231145 -0.00283955 0.00423413 -0.00383119 0.00117596 0.00442664 0.00369589 0.00257389 0.0003378 0.00213631 -0.00137171 0.00526912 0.00499531 0.00553316 0.00296408 -0.00363886 0.00487181 0.00121209 0.00579034 0.000686021 -0.00329689 -0.00578248 0.00430825 0.00231292 -0.00585045 -0.00308539
internal_weight=0 88.3931 81.7379 72.2079 10.3249 7.49856 61.883 9.53 2.54898 60.4119 32.3509 17.3607 8.79872 6.81737 2.7283 28.061 14.9902 13.1976 4.18858 2.13187 8.56201 1.71779 6.84422 0.936013 0.533382 6.65522 3.42709 1.96922 1.98135 0.76149
internal_count=20926 10735 8252 5452 2052 2016 3400 2800 387 2860 1966 1598 1361 710 596 894 368 296 202 591 237 148 89 133 118 2483 121 92 651 81
shrinkage=0.005


Tree=21
num_leaves=31
num_cat=0
split_feature=0 7 5 6 3 4 2 3 3 5 2 1 4 7 1 1 8 3 3 5 3 2 1 4 4 2 4 3 2 6
split_gain=74.8775 18.5123 17.8611 6.46979 7.67019 9.31809 3.66833 3.65818 1.90625 1.41281 1.77272 3.34576 3.81129 2.07021 1.85575 1.84099 1.34734 1.34857 1.31269 1.04095 0.988163 2.06759 1.05675 0.882832 0.81865 0.777968 0.717019 1.51305 1.70737 0.893831
threshold=0.080128205128205135 0.0038166060295865899 0.55777777777777793 0.34009459670481201 0.074722466123183132 2.6830955653782939e-08 0.0045812144802863585 0.0013428894669838343 0.00039163615021728024 0.98000000000000009 0.013184606965824235 0.23837321080104204 0.00052639138250171246 0.00015080606040508989 0.065488854651944803 0.057826850652733748 0.00043542750214176068 0.023798945210806968 0.0021329895966357899 0.76461538461538481 0.003787325368190798 0.29853774695220719 0.32260398215419012 0.00054665937693763216 4.8648049332040153e-07 0.0081930928381192918 0.0051510597427558008 0.014489025404128704 0.012100058383658361 0.13607755991851442
decision_type=2 2 2 2 2 2 2 2 2 2 2 2 2 2 2 2 2 2 2 2 2 2 2 2 2 2 2 2 2 2
left_child=-1 2 7 6 5 -5 -4 8 -2 10 16 12 -12 -14 15 23 17 19 -11 25 22 -22 -13 -15 -10 -8 27 29 -29 -20
right_child=1 -3 3 4 -6 -7 9 -9 24 18 11 20 13 14 -16 -17 -18 -19 26 -21 21 -23 -24 -25 -26 -27 -28 28 -30 -31
leaf_value=-0.0081733880675806791 -0.0053749542783040173 -0.0060713491806409737 -0.0036519920807142397 0.005659319226005253 0.0066313051871155493 -0.0064975697438457479 0.0018273451023132136 -0.0056257575457642284 0.0058244256795363693 0.0022153565378593971 -0.0057774052198187051 0.0070508448005712843 0.0044180438311128009 0.0080788447600789182 -0.0073335496603072151 0.0078504873190172256 0.00060939789596815657 0.0065178423833621244 0.0028243340872420365 0.0042329934109566611 -0.0071135562426645326 0.0050275142088250981 0.0029175180456059865 -0.0042274490685748553 -0.0027631145771278062 -0.0087692787431304983 0.0071879004697378429 0.0054462738624835669 -0.0016518626715548435 0.0062514701071944411
leaf_weight=22.348244581720792 0.73598928272258346 6.4623568524839348 1.4581221716944117 2.2660232838243228 3.0372975246282294 5.1781298075802624 0.43667021440341969 6.9180975264171138 1.4504096251912413 3.2716846344992545 1.9463794718030856 4.5053098793141526 4.0641074487939477 0.17158386972732864 0.85212813562247891 0.71778023825027037 1.6132108441088338 9.1380013281013799 2.2071483605541351 3.3709936515660957 0.50435213220771391 1.1507502486929295 2.3545180570799857 0.96738056326285005 0.34319064777810115 0.28707896498963237 5.4448387291049576 1.8001511192414903 1.6003416175954042 13.785341963055542
leaf_count=10191 236 2483 540 22 36 1994 41 2413 58 241 651 36 114 2 290 25 72 94 105 119 112 36 53 279 93 42 51 24 191 282
internal_value=0 0.00207476 0.00272008 0.00356682 -6.48635e-05 -0.00279698 0.00418428 -0.0037444 0.00140087 0.00437412 0.00365705 0.00256617 0.000389115 0.00216121 -0.0012247 0.00157888 0.00492343 0.00544935 0.00519247 0.00306487 0.00479549 0.00132782 0.00563215 -0.00237352 0.00418127 -0.00237586 0.00558462 0.00513448 0.00210575 0.00577849
internal_weight=0 88.0394 81.577 72.1293 10.4815 7.44415 61.6479 9.44769 2.52959 60.1898 32.0802 17.2343 8.71936 6.77298 2.70887 1.85674 14.846 13.2327 28.1095 4.09474 8.51493 1.6551 6.85983 1.13896 1.7936 0.723749 24.8378 19.393 3.40049 15.9925
internal_count=20926 10735 8252 5452 2052 2016 3400 2800 387 2860 1966 1598 1361 710 596 306 368 296 894 202 237 148 89 281 151 83 653 602 215 387
shrinkage=0.005


Tree=22
num_leaves=31
num_cat=0
split_feature=0 7 5 6 3 4 2 3 3 5 0 8 1 1 2 2 6 4 1 1 0 3 4 7 0 6 1 7 4 0
split_gain=73.7673 18.2013 17.6451 6.39573 7.47317 9.09166 3.61196 3.59886 1.84193 1.55547 4.75497 3.55624 2.54621 1.60966 1.35922 4.64245 2.93914 1.20415 1.06733 1.69899 1.50529 1.52281 1.15999 1.00369 1.81913 1.01952 1.01899 0.969749 0.775328 0.668859
threshold=0.080128205128205135 0.0038166060295865899 0.55777777777777793 0.34009459670481201 0.084794533361441757 2.6830955653782939e-08 0.0045812144802863585 0.0013428894669838343 0.00039163615021728024 0.69615384615384623 0.162280701754386 0.00012516805703875151 0.68196981681373037 0.016398078284241842 0.013184606965824235 0.094487895078153986 0.17010403832783086 0.0057300743198573619 0.41068047636597516 0.2289734950761865 0.75961538461538469 0.010784424302342189 0.0011546678660750707 1.0000000180025095e-35 0.24038461538461542 0.33786047018537385 0.34471138799650125 6.6416942401391417e-05 4.8648049332040153e-07 0.65476190476190488
decision_type=2 2 2 2 2 2 2 2 2 2 2 2 2 2 2 2 2 2 2 2 2 2 2 2 2 2 2 2 2 2
left_child=-1 2 7 6 5 -5 -4 8 -2 11 -11 12 13 -8 -12 16 -16 18 19 20 21 -17 -23 -18 -25 26 -26 -22 -10 -21
right_child=1 -3 3 4 -6 -7 9 -9 28 10 14 -13 -14 -15 15 17 23 -19 -20 29 27 22 -24 24 25 -27 -28 -29 -30 -31
leaf_value=-0.0081235962526797524 -0.0053282500072520935 -0.0060343194857749262 -0.0036528872459549032 0.0055811820384694556 0.0065592929758955714 -0.006433519625635804 0.0011008028777428308 -0.0056204525383321191 0.0057423719826932848 -0.0074407032836560291 0.0058654358034245235 0.0052574664145314939 0.0071130321766268703 -0.0081124918513774662 -0.0050860402053669622 -0.0059714845260688768 0.0043707127164567703 0.0080293710330236814 0.0018593652213934207 0.0075429519275554855 0.0029755535463824095 0.0063137771607275385 -0.0034161196015222378 0.0066041154072423117 -0.0038262518822065072 0.00734288875401905 0.0062623175282361544 0.0072856754811739038 -0.0026864284391770786 0.0051619934679017617
leaf_weight=22.286377091717441 0.72392275335732703 6.4319189479574552 1.445581208448856 2.2653538007289153 3.01915377471596 5.1634459535125643 0.72445557184983034 6.8709502019919455 1.4336573303444309 0.80534475296735664 19.152577449101955 3.5278187509393319 0.55533912405371655 1.3716714145848525 1.6026488527422751 0.74157949606889006 3.3946626894176006 3.4310371961910269 2.6354487233329555 6.300240336568093 3.1064630278851837 0.88431154761929043 0.46866311260964721 0.92748763400595668 2.080847407458351 0.28852314117830236 0.28451806353405107 2.2504425905644894 0.33695490891113866 5.5463423798792064
leaf_count=10191 236 2483 540 22 28 2002 71 2413 58 230 313 86 4 330 459 135 177 13 90 76 119 34 72 52 472 8 10 13 93 96
internal_value=0 0.00206269 0.00270297 0.00354302 -7.39154e-05 -0.00276973 0.00415723 -0.0037529 0.0013911 0.00434515 0.00461755 0.00196905 -0.00240623 -0.00492823 0.00480044 0.00419952 0.00101993 0.0052749 0.00484402 0.00525162 0.00338101 -0.00021293 0.00294339 0.0024227 0.000576238 -0.0015304 -0.00261275 0.00478624 0.00413834 0.00642823
internal_weight=0 87.7714 81.3394 71.974 10.448 7.4288 61.526 9.36549 2.49453 60.0804 53.9011 6.17928 2.65147 2.09613 53.0958 33.9432 8.57869 25.3645 21.9335 19.298 7.45146 2.09455 1.35297 6.97604 3.58138 2.65389 2.36537 5.35691 1.77061 11.8466
internal_count=20926 10735 8252 5452 2052 2024 3400 2800 387 2860 2369 491 405 401 2139 1826 1178 648 635 545 373 241 106 719 542 490 482 132 151 172
shrinkage=0.005


Tree=23
num_leaves=31
num_cat=0
split_feature=0 7 5 6 3 4 2 3 3 5 2 1 4 7 7 8 3 8 3 3 2 6 1 4 4 3 2 6 1 6
split_gain=73.0406 18.0239 17.6429 6.50053 7.2036 9.02653 3.57026 3.41117 1.81654 1.4253 1.68206 3.05798 3.76951 1.94562 1.87941 1.39304 1.34958 1.33075 1.51359 1.1718 2.02388 0.997653 0.870735 0.768009 0.716595 1.54243 1.75168 0.759275 0.705809 0.705101
threshold=0.080128205128205135 0.0038166060295865899 0.55777777777777793 0.34009459670481201 0.074722466123183132 2.6830955653782939e-08 0.0045812144802863585 0.0013428894669838343 0.00039163615021728024 0.98000000000000009 0.013184606965824235 0.23837321080104204 0.00052639138250171246 0.00015080606040508989 0.0037218489516662174 7.7135620929885148e-06 0.0021329895966357899 0.00043542750214176068 0.023798945210806968 0.003787325368190798 0.29853774695220719 0.17721283988524997 0.32260398215419012 4.8648049332040153e-07 0.0051510597427558008 0.014489025404128704 0.012100058383658361 0.13607755991851442 0.004338909775896454 0.20670760155702808
decision_type=2 2 2 2 2 2 2 2 2 2 2 2 2 2 2 2 2 2 2 2 2 2 2 2 2 2 2 2 2 2
left_child=-1 2 7 6 5 -5 -4 8 -2 10 17 12 28 -14 15 -15 -11 18 21 22 -21 -8 -13 -10 25 27 -27 -18 -12 -23
right_child=1 -3 3 4 -6 -7 9 -9 23 16 11 19 13 14 -16 -17 24 -19 -20 20 -22 29 -24 -25 -26 26 -28 -29 -30 -31
leaf_value=-0.0080807099856480807 -0.0054117319977363514 -0.0060142442939571028 -0.0036331648989581383 0.005508108554881549 0.0063926432978354611 -0.0064636976016909601 -0.0026031323093874325 -0.0056087211747505644 0.005700354217725234 0.0021875478870058123 0.0028344822781518021 0.0068546433481782637 0.0043812735531161967 -0.0069317835226990268 0.0071964380836184311 0.0012440507477718859 0.0029244786414607256 0.00056896083668219269 0.0065003792139891135 -0.0082625310492258439 0.0045745385852129098 0.0071418093761593795 0.0031038704658096854 -0.0027644758261260939 0.0071041204784110983 0.0052011996244762165 -0.0023797896619685279 0.0061430363918143259 -0.0067963232596281453 0.0022895580058555944
leaf_weight=22.285952980513684 0.71568735828623031 6.4070429956773287 1.4372808428015549 2.274964824318884 3.0156702598324046 5.1136036947136745 0.70090788591187703 6.8283617713022977 1.3886945977574212 3.3670948586659533 0.21413386007771062 4.5086437477730197 4.093117598677054 1.1586682657944045 0.54052213858813036 0.94668031518813212 2.1108339552302011 1.6177402562461782 9.1261603692546469 0.4446436137659473 0.99213424720801413 1.1427339841611686 2.3558453798759729 0.3320273074787109 5.7733262656256548 1.7291950359940522 1.3622694665100423 13.890718610608017 1.7049185525393111 2.1712534447433427
leaf_count=10191 236 2483 540 22 36 1994 81 2413 58 241 21 36 114 458 5 133 105 72 94 112 36 22 53 93 51 24 191 282 630 99
internal_value=0 0.00205896 0.00269708 0.00353506 -0.00011956 -0.00277754 0.00415445 -0.00379646 0.00128265 0.00434116 0.00361379 0.00253966 0.000460701 0.00222125 -0.00112027 -0.00325548 0.00515829 0.00484808 0.00537486 0.00470796 0.000601815 0.00281647 0.0055674 0.004067 0.00556055 0.00509381 0.0018606 0.00571846 -0.00572169 0.00396272
internal_weight=0 87.4649 81.0578 71.7931 10.4042 7.38857 61.3888 9.26477 2.43641 59.9515 31.7181 16.9593 8.65804 6.73899 2.64587 2.10535 28.2334 14.7588 13.1411 8.30127 1.43678 4.0149 6.86449 1.72072 24.8663 19.093 3.09146 16.0016 1.91905 3.31399
internal_count=20926 10735 8252 5452 2052 2016 3400 2800 387 2860 1966 1598 1361 710 596 591 894 368 296 237 148 202 89 151 653 602 215 387 651 121
shrinkage=0.005


Tree=24
num_leaves=31
num_cat=0
split_feature=0 7 5 6 3 4 2 3 3 5 2 1 4 7 7 3 8 8 3 3 2 7 6 6 7 1 4 4 3 2
split_gain=71.7128 17.5833 16.9725 6.25976 6.98198 8.77716 3.44053 3.39016 1.74997 1.44844 1.68058 2.91834 3.59322 1.92145 1.84715 1.333 1.25583 1.21754 1.26659 1.01534 1.91729 0.966229 0.947131 0.758635 0.917796 0.73531 0.704676 0.702766 1.40297 1.70462
threshold=0.080128205128205135 0.0038166060295865899 0.55777777777777793 0.34009459670481201 0.074722466123183132 2.6830955653782939e-08 0.0045812144802863585 0.0013428894669838343 0.00039163615021728024 0.98000000000000009 0.013184606965824235 0.23837321080104204 0.00052639138250171246 0.00015080606040508989 0.0037218489516662174 0.0021329895966357899 7.7135620929885148e-06 0.00043542750214176068 0.023798945210806968 0.003787325368190798 0.29853774695220719 8.1781205990432308e-05 0.17721283988524997 0.23671902460955294 0.0015622895225579361 0.028468208993373111 4.8648049332040153e-07 0.0051510597427558008 0.014489025404128704 0.012100058383658361
decision_type=2 2 2 2 2 2 2 2 2 2 2 2 2 2 2 2 2 2 2 2 2 2 2 2 2 2 2 2 2 2
left_child=-1 2 7 6 5 -5 -4 8 -2 10 17 12 -12 -14 16 -11 -15 18 22 21 -21 -13 -8 -24 25 -25 -10 28 -17 -30
right_child=1 -3 3 4 -6 -7 9 -9 26 15 11 19 13 14 -16 27 -18 -19 -20 20 -22 -23 23 24 -26 -27 -28 -29 29 -31
leaf_value=-0.0080293336906685341 -0.005324933878746079 -0.0059516782104199984 -0.0035667246713975242 0.0054272282582651082 0.0063000158253271 -0.0063858267638764654 -0.0025283430448821511 -0.0055280322709601142 0.0055082146326235872 0.0021139941834034831 -0.0056452973891896697 0.0030328873602525138 0.004277175752974996 -0.0068542135946396002 0.0070557151032546173 0.0056307957721681082 0.0009936456256843943 0.00067861766176751412 0.0063025168001268938 -0.0081573028849440832 0.0045357315339397521 0.0068899201492563225 0.0064134505453408291 -0.0065780174218560902 0.0061574645969007793 0.002198762049489373 -0.0026238350935459871 0.00703728127402776 0.0051099710698446436 -0.0025902267653361232
leaf_weight=22.169440494442824 0.70652024808805292 6.3755610212683669 1.4268525646766637 2.2786881141364557 3.0251681847730651 5.0732681807130575 0.66342725756112786 6.7796410314040259 1.4296289860503746 3.2648029291303855 1.8916113848099501 2.6466089817695302 4.1246347881387919 1.144745587953367 0.53633396141231049 16.037618507165469 0.91899629635736335 1.6074319449253369 9.2315507831517589 0.42358179297298171 0.99955270672217011 4.201252019032836 1.6516387534793469 0.40861566190142162 0.66412897105328739 0.57367238902952522 0.32740596029907454 5.7928164525656021 1.7132565402425819 1.2381344969617201
leaf_count=10191 236 2483 540 22 36 1994 81 2413 58 241 651 60 114 458 5 387 133 72 94 112 36 29 37 50 10 24 93 51 24 191
internal_value=0 0.00204235 0.00267327 0.00349708 -9.3614e-05 -0.00272445 0.00410631 -0.00370268 0.00132064 0.00428959 0.0035571 0.00247912 0.000442663 0.00215516 -0.0012111 0.00511718 -0.00335952 0.00478708 0.00528765 0.0046006 0.000757776 0.00539923 0.00292269 0.0040192 0.00161735 -0.00145223 0.00399289 0.00551283 0.00504777 0.00187967
internal_weight=0 87.1571 80.7816 71.5384 10.3771 7.35196 61.1613 9.2432 2.46356 59.7344 31.6878 16.8873 8.61632 6.72471 2.60008 28.0466 2.06374 14.8005 13.193 8.271 1.42313 6.84786 3.96148 3.29806 1.64642 0.982288 1.75703 24.7818 18.989 2.95139
internal_count=20926 10735 8252 5452 2052 2016 3400 2800 387 2860 1966 1598 1361 710 596 894 591 368 296 237 148 89 202 121 84 74 151 653 602 215
shrinkage=0.005


Tree=25
num_leaves=31
num_cat=0
split_feature=0 7 5 6 3 4 3 2 3 2 2 4 1 7 7 5 4 1 1 5 8 2 4 5 6 4 4 1 2 0
split_gain=70.6641 17.2524 16.6602 6.16755 6.77949 8.6014 3.37389 3.35839 1.69284 1.5207 5.6277 2.00998 2.57166 2.09178 1.9547 1.35835 1.34224 1.04439 1.78738 3.22821 0.962539 1.02913 0.895944 1.19904 0.702903 0.830769 0.685121 0.645814 0.569334 0.62047
threshold=0.080128205128205135 0.0038166060295865899 0.55777777777777793 0.34009459670481201 0.074722466123183132 2.6830955653782939e-08 0.0013428894669838343 0.0045812144802863585 0.00039163615021728024 0.013184606965824235 0.094487895078153986 0.00068996166805714921 0.2477701028416199 0.00015080606040508989 0.0037218489516662174 0.65833333333333344 0.0057300743198573619 0.41068047636597516 0.2289734950761865 0.91287878787878796 0.00043542750214176068 0.0056010651976104763 0.00050653983870451163 0.84307692307692317 0.17955660729567927 6.243763969800553e-05 0.00019332023285683803 0.004338909775896454 0.0076809576246778784 0.62019230769230782
decision_type=2 2 2 2 2 2 2 2 2 2 2 2 2 2 2 2 2 2 2 2 2 2 2 2 2 2 2 2 2 2
left_child=-1 2 6 7 5 -5 8 -4 -2 20 11 12 27 -13 15 -15 17 18 19 -12 22 -22 23 -9 25 -20 -21 -11 29 -24
right_child=1 -3 3 4 -6 -7 -8 9 -10 10 16 13 -14 14 -16 -17 -18 -19 24 26 21 -23 28 -25 -26 -27 -28 -29 -30 -31
leaf_value=-0.0079811739192387418 -0.0052447377965352546 -0.0059135146924995333 -0.0035360121840910612 0.0053472077862605294 0.0061903831777418115 -0.0063488402143671522 -0.0055128441949407929 -0.0058455218904733073 0.0039648171106004444 0.0028665630047199769 -0.0068451060071429669 0.0039697177847887342 0.0038851986906341491 0.0035650367591701705 0.0069209275697124772 -0.0060777450363281148 0.0076915450866686533 0.0017361050516438521 0.0062426752337006062 0.0011726881869561061 0.0051899457425339584 -0.0020863126107281442 0.0026420351569431404 0.0042423912695459297 0.0068559468529861139 0.0013080859753077032 0.0049551285841772505 -0.0064001620403710503 0.0064724467848793219 0.0060230934464357436
leaf_weight=22.107373956416268 0.69778857671189909 6.3350741161266333 1.4148535639978934 2.284828342497347 3.0328291447367519 5.0379289311822504 6.73051454173401 0.36355181876570575 1.7512709231814367 0.20651311427354713 0.75811949139461887 4.8692028758814558 1.0450582799967376 0.47632467513904053 0.53338874597102393 1.5656672883778808 3.6718942052684715 3.0997677466366431 2.0490717866923656 1.5734021187527103 1.0832407900597889 0.88131687860004593 2.3840045514516559 1.5521271030884236 8.3340402845060435 1.4611556458985431 5.0069278620649129 2.0991430786671117 13.419793897075577 3.1496215462684631
leaf_count=10191 236 2483 540 22 36 1994 2413 93 151 21 244 133 47 53 5 565 18 105 38 110 25 56 59 87 100 62 107 769 133 30
internal_value=0 0.00203115 0.00265611 0.0034718 -9.59076e-05 -0.00269947 -0.00368432 0.00407748 0.00134082 0.00425827 0.00362863 0.000594766 -0.00262112 0.0020422 -0.00160212 -0.00382842 0.00489052 0.00442895 0.00486409 0.0029251 0.00527164 0.00192576 0.00558661 0.00232794 0.00606544 0.00418862 0.00405072 -0.00557016 0.00591598 0.00456646
internal_weight=0 86.8684 80.5333 71.3538 10.3556 7.32276 9.17957 60.9982 2.44906 59.5833 36.7497 10.7953 3.35071 7.44458 2.57538 2.04199 25.9544 22.2825 19.1827 7.33845 22.8337 1.96456 20.8691 1.91568 11.8443 3.51023 6.58033 2.30566 18.9534 5.53363
internal_count=20926 10735 8252 5452 2052 2016 2800 3400 387 2860 2377 1593 837 756 623 618 784 766 661 461 483 81 402 180 200 100 217 790 222 89
shrinkage=0.005


Tree=26
num_leaves=31
num_cat=0
split_feature=0 7 5 6 3 4 3 2 3 5 2 1 4 7 1 1 3 5 4 8 3 6 1 4 6 4 3 1 7 2
split_gain=69.6027 17.0029 15.6289 5.93024 6.58376 8.38884 3.79482 3.25329 1.7719 1.59339 1.91131 2.47549 3.3205 1.83286 1.6756 1.71518 1.20082 1.19864 1.37738 0.905888 1.04922 0.882847 0.825859 0.790975 0.67913 1.00729 0.666843 0.642515 0.641293 1.08243
threshold=0.080128205128205135 0.0038166060295865899 0.55777777777777793 0.34009459670481201 0.074722466123183132 2.6830955653782939e-08 0.0013428894669838343 0.0045812144802863585 0.00039163615021728024 0.98000000000000009 0.013184606965824235 0.23837321080104204 0.00052639138250171246 0.00015080606040508989 0.065488854651944803 0.057826850652733748 0.0021329895966357899 0.84307692307692317 7.5117411600058884e-06 0.00043542750214176068 0.023798945210806968 0.17721283988524997 0.32260398215419012 0.00054665937693763216 0.23671902460955294 0.0021664684736941672 0.031055041240171884 0.004338909775896454 0.00022917244580582938 0.012370238196082078
decision_type=2 2 2 2 2 2 2 2 2 2 2 2 2 2 2 2 2 2 2 2 2 2 2 2 2 2 2 2 2 2
left_child=-1 2 6 7 5 -5 8 -4 -2 10 19 12 27 -14 15 23 -11 22 -19 20 21 -9 -13 -15 -23 -26 -21 -12 -18 -30
right_child=1 -3 3 4 -6 -7 -8 9 -10 16 11 17 13 14 -16 -17 28 18 -20 26 -22 24 -24 -25 25 -27 -28 -29 29 -31
leaf_value=-0.0079348317238069534 -0.0051169166016448399 -0.0058774187630755625 -0.0034817295634048612 0.0052714530983580263 0.0061092814570963419 -0.0062844661275125654 -0.0054598549259932561 -0.0024587879079283753 0.0042876253096121872 0.0021707689890657655 0.0029357084107024529 0.0071077838514145278 0.0041209386192128643 0.0078768501280757561 -0.0071917322005015999 0.0076264967064162397 0.0059949322240364002 -0.0056267515502423579 0.0032909846264094506 0.004603902609415826 0.0060937650029298934 0.0062902252766359867 0.0030707792372428669 -0.0042278120935485579 -0.0013063167636611095 0.0068600526428265907 -0.0021092327099257839 -0.0065826261618891421 0.0059084677240053571 0.002183581236613167
leaf_weight=22.030681263480801 0.68791828828397994 6.3191820991924024 1.4074509951751668 2.291557874530552 3.0428352990420535 4.9909451957792044 6.6840836198534817 0.62261738732923122 1.8417653727810828 3.1550032319501069 0.19875884149223733 3.408608388155697 4.0762704312801361 0.15804205089807533 0.81529359577689309 0.69046083872672159 16.924098455812786 0.5365810401272032 2.2429941021837294 0.69962940481491276 9.2248981939628703 1.6534602616447958 2.0162097561405972 0.92395751259755343 1.0147832776419816 0.60138076031580556 0.78497271309606731 1.6419457814190535 4.4362464025616637 3.4805178681854159
leaf_count=10191 236 2483 540 22 36 1994 2413 81 151 241 21 48 114 2 290 25 324 21 110 31 94 37 58 279 76 8 41 630 47 282
internal_value=0 0.00201923 0.00264102 0.00343566 -6.74117e-05 -0.00264821 -0.0034858 0.00403141 0.00173017 0.00420971 0.00343475 0.00227993 0.000389692 0.00203166 -0.0012594 0.00146934 0.00507643 0.00423937 0.00156947 0.00475624 0.00517521 0.00299818 0.00560737 -0.00245975 0.00403732 0.00173242 0.00105438 -0.00555484 0.00544547 0.00427086
internal_weight=0 86.5725 80.2533 71.0395 10.3253 7.2825 9.21377 60.7142 2.52968 59.3067 31.3109 16.7091 8.50473 6.66402 2.58775 1.77246 27.9959 8.20439 2.77958 14.6017 13.1171 3.89224 5.42482 1.082 3.26962 1.61616 1.4846 1.8407 24.8409 7.91676
internal_count=20926 10735 8252 5452 2052 2016 2800 3400 387 2860 1966 1598 1361 710 596 306 894 237 131 368 296 202 106 281 121 84 72 651 653 329
shrinkage=0.005


Tree=27
num_leaves=31
num_cat=0
split_feature=0 7 5 6 3 4 3 2 3 5 0 8 1 1 2 2 6 7 7 4 1 1 0 3 4 7 6 0 1 8
split_gain=68.345 16.6141 15.9344 5.89613 6.42661 8.22219 3.31694 3.20414 1.61685 1.42106 4.37589 3.61361 1.97339 1.53989 0.946895 3.84967 2.90555 1.21828 1.43476 1.1405 1.11353 1.51324 1.32471 1.33849 1.07734 0.985412 0.77562 0.790481 1.16029 0.690691
threshold=0.080128205128205135 0.0038166060295865899 0.55777777777777793 0.34009459670481201 0.074722466123183132 2.6830955653782939e-08 0.0013428894669838343 0.0045812144802863585 0.00039163615021728024 0.69615384615384623 0.162280701754386 0.00018703079420308416 0.68196981681373037 0.016398078284241842 0.013184606965824235 0.094487895078153986 0.17010403832783086 0.0037218489516662174 1.0000000180025095e-35 0.0057300743198573619 0.41068047636597516 0.2289734950761865 0.75961538461538469 0.010784424302342189 0.0011546678660750707 6.6416942401391417e-05 0.33786047018537385 0.30384615384615393 0.34471138799650125 0.00043542750214176068
decision_type=2 2 2 2 2 2 2 2 2 2 2 2 2 2 2 2 2 2 2 2 2 2 2 2 2 2 2 2 2 2
left_child=-1 2 6 7 5 -5 8 -4 -2 11 -11 12 13 -9 -12 16 -16 18 -18 20 21 22 23 -17 -25 -24 27 -20 -29 -13
right_child=1 -3 3 4 -6 -7 -8 9 -10 10 14 29 -14 -15 15 19 17 -19 26 -21 -22 -23 25 24 -26 -27 -28 28 -30 -31
leaf_value=-0.0078792851510322993 -0.0051632597188589107 -0.005826457057455877 -0.0034695316959394195 0.0051979778394523491 0.0060192106356546596 -0.0062454034519853902 -0.0054489524776751824 0.0012654676892906891 0.00387725214480016 -0.0072622915747068582 0.0055208865119053211 0.0076267891740883784 0.0068098450696735978 -0.0072482341862907243 -0.0049010341011905528 -0.005960495091177985 0.0041094903476764071 0.0082868331841235484 0.0032562725135125191 0.0078166985935590027 0.001605695577655172 0.0062315122417133688 0.0026901368964177548 0.0060399109345616988 -0.0040856739415153819 0.0071059325316035092 0.0070116295881929068 -0.0046040351423506307 0.0061439804700207292 0.0031627332372426852
